nep4 2 C Si 
cutoff 6 4 170 49
n_max 6 6
basis_size 10 10
l_max 4 2 0
ANN 50 0
  6.3024020e-01
  2.2187488e+00
  1.3309406e+00
  2.0566418e+00
 -2.6489999e+00
  1.1506257e+00
  2.1760276e-01
 -7.6112868e-03
 -1.9204694e+00
  8.2977051e-01
 -1.3400871e+00
 -4.5235610e-01
  1.9260774e+00
 -1.1283025e-02
 -8.2314128e-01
  6.9347150e-03
  1.1818204e+00
  2.3294301e+00
 -7.9231024e-01
  1.6839024e+00
  1.0345038e+00
  3.0624552e-02
  3.0542691e+00
 -1.8675610e-01
  3.1488719e+00
  1.0380073e-04
 -3.0174634e+00
  8.2683307e-01
  9.0670794e-01
 -9.3948148e-02
  1.1605940e+00
  2.2640663e-01
 -1.0517190e+00
 -2.3210278e+00
  5.9480418e-04
  7.0661449e-01
  1.1960852e+00
  1.6714869e-01
 -1.0989717e-01
 -3.0527897e-03
  1.2206759e-01
  2.9072033e-02
  2.3467353e-01
 -5.0639095e+00
 -2.8315091e+00
 -8.6438704e-01
 -3.9031127e-01
 -4.0996966e+00
  1.2657082e-02
 -6.8983603e-03
 -5.3557832e-02
 -2.8192906e-03
  4.1050526e-01
  2.3628733e-04
 -4.3071251e-02
 -3.7534237e-01
  9.8131257e-01
  2.0187984e+00
 -6.0859168e-01
 -5.4248971e-01
  1.2505550e+00
  1.0470049e+00
  6.6423345e-01
 -1.1625527e+00
 -1.9682754e+00
 -4.6581888e+00
  4.7389758e-03
  9.0152955e-01
  3.8496587e-01
 -1.0532274e+00
  4.0144701e-02
  7.2624111e-01
 -3.9708848e+00
  2.3070851e-01
 -1.7382348e+00
  2.8452518e+00
 -3.7867954e-04
 -3.9150035e-03
 -6.5377182e-03
  2.8221160e-01
  1.5877852e-02
 -5.3854105e-03
 -3.0556516e-04
 -8.8102632e-04
 -1.1303252e+00
  9.6995505e-03
  4.4013532e-03
  2.0787869e-02
 -1.1589856e+00
  9.9529959e-02
  1.8410911e-03
  4.1984650e-03
  8.4326632e-04
  4.5184916e-04
 -2.9947620e-03
 -7.1887262e-05
  1.0416398e-03
 -7.9173921e-04
  2.6409702e-05
 -1.2587145e-03
 -4.1530799e-04
 -3.0451769e-01
  1.4576540e-02
  3.4272932e-03
  5.0047222e-03
 -2.3939603e-03
 -1.2857569e+00
 -5.5800960e-04
 -3.2799151e-03
 -1.6067276e+00
 -5.6752980e-01
  3.0011169e-03
  2.4615090e-02
  4.7692996e-03
  1.6502085e-01
 -3.3672042e-03
  6.1339054e-02
  5.5689335e-01
 -2.7849497e-03
 -3.8795874e-03
 -1.5967335e-04
  4.8827534e-03
  5.3526810e-03
 -4.5280208e-04
  2.6600596e-03
  5.5971909e-03
 -5.8615454e-03
 -1.2945170e+00
  2.5031477e-04
  2.2854591e-02
 -5.2192491e-01
 -2.3430936e-01
  3.7667342e-04
  4.9296366e-03
  2.7957975e-04
  8.6640837e-03
  2.2168970e-03
  1.9443986e-03
 -9.8303305e-03
  2.1972232e-03
 -5.8292444e-03
  2.9024179e-03
 -2.1182621e-02
 -6.8773800e-03
  1.0439826e-03
 -1.6573403e-03
  2.6688504e-05
 -6.1236840e-04
 -1.4709064e+00
 -1.2754961e+00
  7.3796470e-04
 -2.5885984e-02
 -6.6018307e-01
 -1.9440214e-03
 -6.4456072e-03
 -1.7578805e-02
 -4.8123054e-02
  4.2982167e-03
  6.6548646e-03
 -1.2440109e+00
 -3.2074532e-01
 -8.9685811e-04
  3.2747232e-03
 -3.0395996e-03
  3.3212599e-04
 -3.9362800e-03
  1.6187370e-03
 -3.0749519e-03
 -2.6293850e+00
 -4.6035999e-01
 -3.8202524e-03
 -2.7549604e-01
 -4.2632017e+00
  2.7127926e+00
 -3.1965117e-03
 -1.8483601e+00
  2.8586844e-03
 -2.7160586e-03
  2.7711319e-03
  4.9119407e-01
 -9.9813333e-04
 -6.3535664e-04
 -8.3546793e-01
  2.5217701e-02
 -5.1608777e-01
 -2.7573071e+00
 -2.7984416e-01
 -4.8289586e-02
 -2.3033373e+00
  8.8442934e-01
  8.1880718e-01
 -1.0066879e+00
 -1.6677266e+00
 -6.8269870e-03
 -3.1307134e-01
 -8.6163884e-01
  5.9287125e-01
  1.0812776e+00
  3.2348609e+00
  7.8269213e-02
 -2.2833823e-01
 -3.5452121e-01
  4.6947978e-02
 -3.0077114e-03
 -2.0606602e-02
  6.3675827e-01
  4.1420804e-04
  6.4391717e-03
 -5.1847231e-01
  4.3360909e-04
  7.9581231e-01
 -5.3156483e-01
 -6.9821179e-01
 -3.1674731e-01
  1.2072197e+00
 -2.2945693e+00
  3.5665643e+00
 -8.1630445e-01
  5.4961830e-01
 -2.8033487e-02
  5.6401634e-01
  4.9548966e-01
 -3.8070947e-01
 -4.5920935e-01
  1.4836322e+00
  2.4435069e-01
 -7.2282314e-02
 -1.1699115e+00
 -2.1620932e+00
  1.5382118e+00
 -1.1694902e+00
 -2.4801259e-01
 -2.7810655e+00
  4.2831302e+00
  2.4433638e-01
 -9.9121612e-01
  7.3470592e-02
 -1.0664701e-01
  3.3548269e-02
 -4.5037213e-01
 -1.0442084e-01
  6.2215153e-02
  1.5916272e+00
 -5.5015439e-01
  1.3766433e-01
 -1.4882245e+00
 -3.6187372e-01
  1.8476951e+00
  1.7635810e-01
  3.5265486e-03
 -5.0389457e-01
  1.3891779e-02
 -2.0789812e+00
 -7.5832647e-01
  1.5246594e+00
 -9.1850441e-03
  2.6065590e+00
 -4.1830671e-01
 -6.2606458e-05
  1.5588736e-03
  5.8644378e-05
  3.1061847e-02
 -3.6920286e-03
 -4.3827778e-04
  7.5909823e-02
 -2.8935182e-04
 -3.2606384e-01
 -6.8643629e-03
 -4.8734611e-03
 -1.5989977e+00
  5.8343704e-04
  7.5808796e-03
  3.3194181e-01
  8.1546814e-04
  9.8243809e-01
 -3.2884128e-02
  1.5751027e-01
 -5.9101591e-03
 -1.0835589e-01
 -4.9851267e-03
 -3.4166791e-02
 -2.5493634e-04
  2.2604847e-01
  1.5168531e-01
 -5.0293771e-03
 -3.1878946e-03
 -2.6254351e-03
 -9.8565198e-04
  2.8110223e-03
 -3.7597681e-03
 -2.3362373e-03
 -1.0253967e-03
  2.9997854e-03
  3.0232726e-03
 -3.1394413e-04
  2.2756022e-03
 -9.2476364e-03
 -5.6554363e-03
  6.4422627e-04
  3.8056257e-03
 -4.7338135e-03
 -1.3016359e-03
 -2.1368244e-03
 -1.3404926e-04
 -4.4766525e-04
 -1.9369081e+00
 -2.3423072e-03
  1.9171966e-04
  2.3732206e-03
  3.8014115e-03
 -1.5292196e-03
  2.4407106e-03
  1.6811229e-03
 -3.2381774e-03
  3.0114022e-03
  5.6822109e-04
 -1.0603631e-03
  5.8159209e-03
  8.7315188e-04
 -1.0293350e-02
  1.5949678e-03
  1.5470298e-03
 -5.9687924e-01
 -4.7700871e-03
  6.1268201e-03
  1.9902822e-03
  7.1215652e-02
  6.8606016e-05
 -7.4600131e-04
 -3.3996720e-03
 -2.1312039e-03
 -1.0857274e-03
  2.8316425e-03
  3.3368655e-03
 -4.5990472e-04
  5.9312220e-05
  6.1656181e-02
 -2.5973260e-01
  7.6498049e-01
  3.9481744e-02
 -5.5652010e-01
 -5.0354868e-02
  1.2237494e-02
 -7.6762978e-03
 -1.9562989e-01
 -3.0107035e-03
  1.2360422e-04
 -3.2314337e-03
 -1.2140273e-01
 -2.0473592e-01
 -1.4511939e+00
  9.9175591e-03
  2.9117181e-03
 -8.8636391e-02
  1.0281224e+00
  1.9560303e-03
 -2.1793219e-01
 -1.6794854e-01
 -3.0301750e-02
 -3.1395210e-04
 -1.0239621e-01
  1.8892671e-03
 -6.2005889e-01
 -4.9089572e-01
 -1.0731836e-03
 -1.1233576e-03
 -1.6506132e-01
 -7.7121460e-01
 -2.0177339e-01
 -1.1326040e-02
 -6.6511530e-01
  2.7331614e-03
  6.1262483e-03
  8.1562385e-04
  3.6859918e-01
  5.4316716e-03
  3.6270442e+00
  6.8218182e-03
 -2.0714488e-03
  5.2642985e-03
  5.2253884e-04
  1.4982741e-01
 -1.3454756e-01
  9.2039868e-02
  2.3497203e-03
 -4.0899743e-03
 -4.6055778e-03
 -1.8591966e-02
 -7.4798666e-04
 -3.9194152e-03
  4.5740523e-04
  3.3920910e-03
  2.7510740e-03
 -6.2795132e-03
  4.6612229e-03
 -3.6275322e-03
  2.5917361e-03
  1.3566214e-02
 -2.6011906e-04
 -8.4935821e-04
  5.0656397e-02
 -1.9233021e+00
  3.7476823e-03
 -8.3142765e-02
  1.8151566e-01
  2.8634342e-04
  7.7508180e-03
 -3.7831420e-04
  3.8772912e-03
  9.0469178e-03
  7.5791324e-03
  4.8282447e-01
  1.8873902e-04
 -3.8403952e-03
 -5.9093663e-04
  6.4624101e-03
 -4.5586952e-05
  1.0697502e-03
 -1.7027232e-03
  6.1707264e-03
  2.8698800e+00
 -6.4969426e-01
 -4.8519382e-01
 -2.4711370e+00
 -1.2746671e-01
  1.3016107e+00
 -4.2818569e-02
 -1.3619717e+00
  4.1910827e-02
 -5.0039017e-01
  7.1037757e-01
 -8.5247612e-01
  4.7414604e-01
 -4.9537703e-01
  2.3963264e-01
 -8.3803308e-01
 -4.6887457e-01
 -7.5898267e-02
  2.6964265e-01
  1.2307312e+00
  5.5236131e-01
 -2.2026513e+00
 -1.8134577e+00
 -6.1955577e-01
  5.0272083e-01
  7.2973922e-02
  4.2553434e-01
 -2.7461803e-01
 -7.4591053e-01
  5.0006211e-01
  1.9859085e+00
  1.3906695e+00
  4.8994981e-02
 -9.9023753e-01
 -4.7879022e-01
  5.0567356e-03
 -3.6087369e-03
  7.6678671e-02
  4.6648881e-01
 -8.8027929e-04
 -7.7618682e-03
  1.1863632e-01
  2.0907733e-04
  2.4588235e-01
 -3.8474519e-04
 -1.1675527e-02
  6.1831286e-04
  1.8825961e-02
  6.7454115e-03
 -1.0833250e-02
 -1.7191265e-03
 -5.9733132e-04
 -4.1921285e-04
 -2.0325589e-03
 -2.7172660e-04
 -1.8851648e-03
  2.6750462e-05
 -2.4737571e-03
 -1.0852118e-03
  1.6968403e-03
  9.7891153e-04
  3.3305113e-03
 -2.6214786e-03
 -2.9142590e-03
  3.4729799e-03
  4.5135035e-03
 -7.6841958e-02
  1.6432641e-03
  6.4570080e-03
  1.1718434e-03
  1.3242364e-05
  1.4446287e-02
  3.0074565e-04
 -1.8368948e-02
 -8.0715632e-04
 -3.6915496e-03
  9.1062821e-03
 -8.0250163e-04
 -1.3170247e-03
 -1.4513126e-04
 -3.5877246e-04
 -2.2221783e-03
 -1.0623427e-04
  3.1546937e-04
 -1.6389474e-02
 -2.2739079e+00
 -3.9455587e-01
  6.6067564e-01
 -1.5570009e+00
  6.7113584e-01
  5.9810450e-04
  3.2049164e-01
  1.6583583e-01
  4.9849817e-01
 -5.3995031e-01
 -1.2601886e+00
  1.1401253e+00
  6.0944498e-04
  5.8836448e-01
  1.7425859e+00
  2.6293092e+00
  5.7760459e-01
 -4.5652485e-01
  6.9901094e-02
  1.1462673e+00
  2.4628279e-01
  9.6236259e-01
 -2.4467985e-01
 -1.6440831e+00
  1.4806902e-01
  7.3453152e-01
  7.1489120e-01
  3.5919133e-01
  3.6266437e-01
 -4.3485409e-01
  1.7736283e-01
  5.3514916e-01
  2.8663364e-01
  9.6428907e-05
  1.7625089e-03
  2.5460832e-03
 -1.4885702e+00
 -5.0621659e-01
 -4.9265330e-03
  1.9161084e-01
 -2.7971484e-03
 -1.2073579e+00
 -6.8049908e-01
 -2.5028563e+00
 -1.6343884e+00
 -1.8353184e+00
  2.9137969e+00
 -1.9606105e+00
  2.9243724e+00
  2.0440087e+00
  2.8073573e-01
 -9.8154205e-01
 -2.9215287e-02
  1.1943350e-01
 -5.6655633e-01
  9.2396039e-01
  5.9538239e-01
  1.0733660e+00
 -1.2801875e+00
  1.4467113e+00
  8.6155444e-02
 -7.6538575e-01
  8.4131598e-01
  1.0442548e+00
 -1.9807945e-01
  5.5277026e-01
  2.9923746e-01
 -1.9804899e+00
 -1.2473923e+00
  2.9035288e-01
  3.8688812e-01
 -5.8884639e-01
  2.8855217e-01
 -1.7165339e-01
 -2.2273269e-01
  4.4799723e-02
  2.6911497e-04
 -7.9435958e-03
 -5.5950975e-01
  6.6502700e-03
  7.7816933e-02
  2.4541317e-01
 -2.6949865e-03
 -1.9032636e+00
  2.6605725e+00
 -9.5838207e-01
 -6.1353642e-01
 -2.7163017e+00
  5.4527646e-01
 -2.9288669e+00
  1.3320544e+00
 -1.7532902e-02
  1.5167091e+00
  9.8954952e-01
  4.8109496e-01
  2.7508393e-01
 -4.4453877e-01
 -3.5615036e-01
  1.1698548e+00
  4.7699516e-04
  2.7573531e+00
 -1.4549271e+00
  1.5177166e-01
  5.9432310e-01
 -1.4523691e+00
 -7.7924299e-01
 -8.0348599e-01
 -2.6192913e+00
 -2.7493505e+00
  3.4621527e+00
  5.3360116e-01
 -1.3036375e+00
 -1.9474232e+00
  5.6914365e-01
 -1.8443657e+00
  7.4350613e-01
  6.8944977e-03
 -6.6853714e-01
 -1.0294092e+00
  8.9588642e-01
 -2.4329651e-02
 -1.7458124e+00
  2.4588037e+00
 -1.6090757e+00
  8.7668943e-01
  1.2178306e-03
  5.3107012e-03
 -2.5353392e-03
  1.0811171e-03
  4.8211665e-04
 -2.2921520e-03
  1.2096961e-03
 -5.3371714e-05
  1.2730084e-03
  5.1692291e-03
  6.0118618e-03
 -1.5582048e-03
  1.8793546e-03
  5.8914945e-03
  2.5595301e-03
  3.2800024e-03
  6.8766838e-03
 -1.4663454e-05
 -1.0395595e-03
  2.2887473e-03
 -8.6393848e-04
 -2.5129307e-03
  1.8250097e-03
 -1.1841227e-02
 -7.3011140e-03
 -5.0864937e-03
 -9.8913768e-04
 -6.1831181e-03
  8.3433208e-04
  2.3066199e-03
  2.2726532e-03
 -1.8002210e-02
 -3.5829179e-03
  3.4132174e-03
 -2.8546543e-03
  1.4687308e-04
  3.4147473e-03
 -2.1425649e-03
  1.4685155e-03
  2.5755935e-03
  1.1752642e-03
  1.3745825e-03
 -2.6222612e-04
  2.2712494e-03
 -1.4422474e-03
  5.2094795e-03
  1.1744598e-03
  1.4865255e-03
 -5.9315427e-03
 -2.0655703e-03
  4.0203547e-03
 -4.5022927e-03
  1.6203253e-03
  4.2438152e-04
 -7.9762740e-03
 -1.0689946e-03
  6.1207991e-03
 -1.8824247e-03
  2.7981885e-03
  1.1728412e-02
 -2.3961505e-04
 -1.2300580e-03
  1.8393341e-03
  5.2827568e-04
 -2.3012818e-03
 -7.4359785e-05
 -1.6072390e-03
  3.6882688e-03
 -3.6101930e-03
  8.5678307e-04
 -7.1513449e-04
  9.9450815e-03
 -6.6883687e-04
 -9.0373997e-03
  1.1197211e-04
 -1.0081354e-03
 -2.5808327e-03
  2.1255128e-03
  2.9276242e-03
  6.2431972e-03
  4.0173628e-03
 -8.3444209e-04
  1.9756805e-03
 -6.3081621e-04
  3.1007159e-01
 -8.7121493e-01
  1.5410219e-01
 -1.0361731e+00
  6.1984472e-02
 -2.4662662e-01
 -5.9343708e-01
  2.1166566e-03
  3.5116835e-03
  1.3485422e-02
  3.3070022e-01
  4.1459080e-02
  3.5913610e-03
  1.7635461e-03
  6.4874858e-01
 -8.0351497e-04
 -2.3777162e-01
 -5.1702816e-02
  6.3784225e-03
  1.6037728e-01
 -2.3845391e-02
  4.2641606e-02
 -1.1210071e+00
  7.7023998e-02
  4.3624014e-01
  3.2235526e-02
  1.4016348e-02
  7.2515896e-03
  1.1075721e+00
  8.9514017e-02
  5.9007090e-03
  2.2990175e-02
  3.5611499e-02
  3.9530796e-01
  2.5927666e-01
  2.0598604e-03
  2.0604013e-03
  1.8393893e-02
 -1.8720045e-03
 -1.1090763e-04
 -5.4830862e-03
 -8.4311713e-04
  3.9399090e+00
 -1.6273583e+00
  1.9013278e+00
  9.3602097e-01
  1.8583258e+00
  1.3418733e+00
  2.4753159e-01
 -6.4118385e-01
 -1.0363321e+00
  1.7882638e-03
 -1.4929684e-01
 -3.3860180e+00
 -1.3312035e+00
 -6.7828149e-01
 -2.6870516e-01
 -4.6426964e-01
 -7.0826500e-04
  2.7221050e-03
 -6.4801760e-02
  4.5281630e-02
  9.9940471e-02
 -7.0302945e-04
 -5.1080632e+00
  8.6941850e-01
  1.4812641e-01
 -3.7193272e-01
 -9.5800854e-02
 -5.4208916e-02
 -3.7885826e-02
  3.0802292e-01
  1.4998494e+00
  7.5274760e-01
 -2.0930464e+00
 -1.1897433e+00
 -4.5701038e-02
 -7.1510128e-03
  4.1924469e-02
  1.4431338e-03
 -2.5877275e-03
 -2.7858448e-01
  8.4880443e-04
 -1.3312174e-03
 -1.0856534e-03
 -1.7265084e+00
  8.5010203e-03
  1.9190926e-03
 -1.8067342e-04
  3.2546949e-02
 -8.8369643e-04
  6.9033023e-04
 -4.3117200e-04
 -4.2188787e-03
 -1.2263780e-03
 -2.8398319e-03
 -1.3268759e-03
  5.2130432e-04
 -2.2498227e-03
  2.6063231e-04
  8.3969865e-04
 -1.3892991e-03
  9.9529272e-01
 -9.9213689e-04
  5.0064113e-02
 -2.8529575e-03
  4.4460776e-03
  2.1432166e-04
  2.0935624e-03
  5.4089463e-04
  1.2787770e-03
  8.9638709e-04
 -1.5059621e-03
 -2.6507878e-03
 -4.2586593e-04
 -2.9806506e-03
  1.0847689e-03
 -2.6850700e-01
  1.2081981e-03
 -2.5916735e-03
 -6.1573666e-03
 -2.5814732e-03
  1.6234093e-03
 -3.7862845e-03
 -2.0947864e-02
 -8.5171126e-04
 -2.2602610e-01
  1.2671420e-03
  2.8777358e-03
 -2.4284633e-04
  3.9238054e-03
 -2.4024005e+00
 -2.4172962e-03
  2.7303249e-03
  3.2540911e-03
  5.0609298e-03
  1.0231946e-02
  2.4276775e-01
 -3.8489043e-03
  1.5696647e-04
 -2.1406454e-03
 -7.6843332e-04
  4.6157609e-03
  1.5281907e-03
 -3.1825963e-03
 -6.3074153e-04
 -1.4147650e-02
  2.9363711e-03
 -8.2969898e-03
  1.5964834e-01
  2.2787207e-03
  5.1140864e-03
 -1.4080280e-03
 -5.6978799e-03
  2.7003530e-03
  7.9565233e-04
  1.0062592e+00
 -1.4937631e+00
 -1.7018325e-03
 -9.4368879e-04
  4.4193082e-03
  9.9315066e-03
 -2.6992138e-03
  1.7327543e-03
 -2.9429821e-03
 -2.9268605e-03
  1.0059377e-02
  3.8202445e-04
 -1.1826648e+00
  2.0024137e+00
  1.0164336e+00
 -1.6613554e+00
 -1.2756563e+00
 -1.3890094e+00
 -1.0150740e-02
  6.9853711e-01
 -4.6586769e-04
  7.3327565e-01
  1.5249714e+00
 -1.6002647e+00
 -3.0447632e-01
  2.2840980e-01
  2.3423858e-01
  2.1371520e+00
 -1.1295764e-01
  9.1828682e-02
  8.3994663e-01
 -5.4725075e-01
 -4.2154700e-01
  9.0708405e-01
  2.4658730e+00
  1.2909997e+00
  2.6166700e-02
 -3.0300927e+00
 -1.4921204e+00
 -5.2170448e-02
 -1.9489501e-02
  2.5586671e-01
 -4.5073915e-02
  2.1248383e-03
  3.7852308e-01
  1.9129342e+00
  2.5015282e-02
  5.4685315e-03
 -3.8215786e-02
 -1.8997531e-02
 -3.2895637e-01
  8.1230537e-04
  6.9298822e-01
  2.5657007e-01
  2.1142234e-01
  2.7712649e-01
 -4.4936105e-03
  6.2268246e-03
  3.8000327e-04
  3.0256936e-01
  2.0031817e-01
 -5.9154490e-03
  6.5569892e-03
 -1.8692376e-02
  8.7971630e-04
 -5.8022879e-02
 -6.3851867e-03
 -5.6911306e-04
 -9.2940684e-03
  1.0769945e-03
  1.6456153e-03
  2.0476894e-03
 -3.7190584e-03
 -8.6942356e-04
 -1.2505120e-03
 -4.4464767e-05
  3.2973122e-02
 -7.8070574e-02
 -1.2097242e-01
  9.1739312e-06
  6.4833104e-03
  1.3598669e-03
 -1.8343126e-03
 -3.4247397e-03
 -1.8302335e-01
 -1.0317867e-03
  2.8346265e-03
  1.7183376e-03
  2.1451734e-02
 -1.6492519e-03
 -6.3913227e-03
  2.7918571e-03
 -3.8530098e-03
 -3.9871197e-04
 -4.2755168e-04
  2.1307955e-04
  7.7542967e-01
 -4.4761682e+00
 -1.1703517e-01
 -9.2406327e-01
 -1.9293307e+00
  4.7401190e-03
  2.9043539e-03
 -2.9473519e-03
 -2.1046175e-02
  5.4913424e-03
  2.1607419e-03
 -8.8244356e-04
 -3.2002088e-02
 -8.6786807e-02
 -5.4564804e-01
  2.7666257e-03
 -2.3226120e+00
 -7.2964418e-01
 -3.2404751e-02
 -2.6540749e-03
 -2.4876772e-01
 -1.4900814e-03
  2.4333208e+00
 -1.0597105e-01
  2.5686070e-01
  1.4433413e+00
 -2.1182868e+00
  9.6795539e-04
 -8.6173101e-04
 -1.1196760e+00
 -2.5909696e-02
 -3.0542135e-02
 -4.0224764e-01
  3.1354290e-02
 -4.7021047e-03
  1.5465833e-03
  1.6496571e-03
  5.8399826e-02
 -2.1971688e-03
  1.4798810e+00
 -4.5379065e-03
  1.1670105e-03
 -2.0527215e+00
 -1.1929075e+00
 -9.5878679e-01
 -4.9845734e+00
  2.0496988e+00
 -2.1704369e+00
 -1.1796480e+00
  6.9114602e-01
 -2.7994934e-01
 -1.3201905e+00
 -1.8371077e+00
 -2.9540259e-01
 -2.7464968e-01
  7.3349428e-01
  6.9391233e-01
  1.2756644e+00
  1.6683762e-01
  1.0995509e-01
 -1.4700266e+00
 -7.0619959e-01
 -5.8092010e-01
 -4.9018452e-04
 -1.4259492e+00
  3.3065403e+00
  1.1440793e+00
  5.4262644e-01
  1.1666531e-01
  7.5559998e-01
 -3.2945436e-01
 -5.2435684e-01
  1.5212110e+00
  7.1528274e-01
  9.3671000e-01
  4.1442260e-01
  8.1830181e-02
  7.4418092e-01
 -8.9859344e-02
  2.3596300e-02
 -9.3375817e-02
  1.5811156e-01
 -2.6472178e-01
  2.2928314e-03
 -4.3246421e-04
 -1.5474787e-03
 -3.4914545e-03
 -6.6124140e-03
 -7.8967459e-02
  5.0811283e-05
  1.3254282e-04
  7.8301399e-04
  4.9265631e-04
  5.7541532e-03
 -2.2806136e-03
  5.2718224e-04
 -4.8553722e-04
 -5.7859806e-04
  3.5316513e-03
  1.4139015e-03
 -6.4480619e-04
 -2.1286869e-02
  5.1797875e-03
 -4.6538720e-03
  8.1074907e-04
  3.3001236e-03
 -4.0795570e-04
  2.8479125e-03
  8.4200018e-04
 -2.5133924e-03
 -2.9130795e-03
  1.8179454e-03
 -4.7501349e-03
  2.2832402e-03
  1.2780737e-02
  2.3798470e-03
  5.8648526e-04
  2.6714659e-04
  9.8237465e-04
 -1.9998858e-03
  1.4619594e-03
 -2.7243095e-03
 -1.3084064e-03
  2.1429706e-04
  5.3157308e-04
  5.7247857e-04
 -1.8809041e+00
 -3.6824303e+00
  2.7909824e-01
  2.8902987e-01
 -1.9411155e+00
  1.3373286e+00
  5.8652180e-01
  5.9446394e-03
 -3.6511821e-04
 -9.6533790e-02
 -6.4466424e-02
  2.1079421e+00
  8.5038447e-01
  1.0031878e-02
  3.9281705e-01
  4.3908637e-03
 -1.9850145e-01
 -1.6976995e+00
 -3.4064326e-01
  4.1249036e-03
 -6.5962815e-01
 -3.4499884e-01
 -2.2784366e-01
 -1.7976975e-01
  3.8205668e-01
  8.1838761e-03
  6.6635358e-01
 -1.1081765e-01
 -3.7633553e-01
  3.8746464e-01
 -2.3594580e+00
 -2.2050203e-01
  5.6820792e-01
 -6.5197949e-03
 -3.2846117e-03
 -1.7949233e-03
  2.7567733e-03
 -5.7349663e-02
 -5.3511378e-03
  8.7292474e-03
  2.2358436e-02
 -3.9112709e-02
 -3.8802554e-03
 -7.3438399e-02
  2.8976479e-03
  2.2278372e-03
 -4.0275841e-03
 -5.6107688e-01
 -1.3023158e-02
 -7.0324482e-04
  1.5514483e-03
  2.4412643e-02
  4.7045676e-03
  1.7873753e-02
  2.2146755e-03
 -3.4038918e-03
  2.0130454e-03
 -3.2215302e-03
  1.0169265e-03
 -3.5502545e-03
  1.2135811e-03
 -1.1140201e-03
  5.1309372e-04
 -4.0601376e-03
 -3.2162273e-03
 -2.8529358e-03
  9.6967183e-02
  1.3648700e-03
 -5.7292148e-04
 -1.8481742e-01
 -4.7061648e-03
  2.3000489e-03
 -7.3077431e-04
  4.1453441e-05
 -6.7884293e-03
 -3.3107355e-02
  1.1930673e-03
 -2.1758566e-04
  4.6919412e-03
 -9.8811537e-03
  3.4333589e-03
  2.4214461e-03
  5.5822427e-03
  2.6169035e-03
  1.8123055e+00
  2.6089365e+00
 -6.6746515e-03
  7.7904749e-01
 -3.2100668e+00
 -2.7833066e+00
 -1.0921853e-03
 -3.3434306e-03
 -1.7917457e-04
 -4.0610023e-03
 -7.1490649e-04
  2.6732439e-01
 -8.1638491e-04
  7.2950165e-04
  4.8728903e-05
 -9.0232055e-04
 -3.4987128e-03
 -4.3120906e-01
  1.3448882e+00
 -1.0233403e-01
 -3.5591924e-01
 -3.6056226e-01
 -3.7739089e-01
  6.8920240e-02
 -3.0063324e+00
 -5.9093523e-01
  2.0363061e-02
 -1.0945996e+00
  6.6477817e-01
 -1.0253410e+00
 -9.1594595e-01
 -1.2608174e+00
 -2.9359216e-02
  1.0088982e-01
  5.6082336e-03
 -4.1687917e-03
 -2.1597876e-03
  1.3142765e-03
 -1.0031976e+00
  1.0967075e-03
 -7.1613076e-03
  1.8413702e-03
  7.0708334e-02
  1.2745903e+00
 -2.8352433e-01
 -7.8828283e-02
 -2.0940392e-01
  1.2524973e-01
  2.9120755e-03
 -3.1514531e-01
 -1.9657773e-03
  1.9915231e-01
 -4.1352976e-02
 -4.3858102e-01
  1.5239753e-02
  6.0018001e-04
 -3.5680142e-01
 -8.8190939e-04
  1.4596016e+00
 -4.6999279e-01
  2.1542348e-01
  9.1185725e-01
  7.6178807e-01
 -3.2759690e-01
 -3.5349131e-01
  3.3203110e-02
 -1.4713666e+00
 -4.8959365e-01
 -3.3924636e-01
 -4.8381335e-01
  8.6456925e-02
  1.0723606e-01
 -6.6203165e-01
 -1.8080047e-01
 -4.4333377e-01
 -2.6779032e-01
 -4.2910588e-01
 -2.2083890e-01
  5.4815367e-02
 -3.0250275e-01
 -2.0002007e+00
 -4.2925380e-02
  4.3121525e-03
  6.1821896e-01
 -2.3735091e-02
 -1.5510596e+00
  4.2913477e-03
 -1.1842746e+00
  6.7706876e-03
 -5.8302683e-01
 -2.5396235e-03
 -8.6081941e-03
 -3.3046736e-04
  7.1894792e-03
  2.8268532e-03
 -1.5989296e-03
  3.6781870e-03
 -5.0571277e-03
 -2.2170160e-03
 -1.3605903e-03
 -5.0936067e-01
 -5.4903245e-01
 -2.5277787e-03
 -1.5473968e-02
  1.5049714e-03
 -1.6295286e-02
 -2.0271229e-02
  4.5370251e-02
  3.1212786e-01
  2.0731196e-03
 -3.0281037e-02
 -4.8500840e-03
  6.6443981e-04
  1.7262268e-03
 -8.8291091e-01
  1.5557333e-03
 -7.2552972e-02
 -7.6223356e-01
  4.9102702e-03
  1.3423322e-03
  6.3841394e-04
 -2.3864030e-03
  4.5139972e-05
  3.3212281e-04
 -4.1758725e-03
  8.2681170e-03
  4.2606979e-03
 -6.7012961e-04
 -3.1197218e-03
 -1.8834547e-04
  1.5086386e-03
  7.3401985e-05
 -1.9064683e-03
  1.4079316e-03
  2.7005677e-04
  1.8603227e-03
  9.8264986e-04
  1.8258155e-03
 -4.9755755e-03
  4.0349481e-04
 -2.8615750e-03
 -3.6792492e-04
  9.6672616e-04
 -1.0171224e-03
 -4.2094481e-03
  3.6415856e-03
 -1.6048938e-04
  1.1483567e-02
  2.5610402e-03
  6.7579688e-04
  3.2509901e-04
 -1.3041318e-03
 -7.3384516e-02
  2.1147035e-04
 -1.7409415e-03
  7.6139884e-05
 -7.5883645e-04
 -7.0799757e-03
  4.5198440e-03
  8.4167700e-03
  3.9992691e-03
  4.1829264e-03
 -1.8998190e-04
 -1.0423073e-04
  1.7754574e-03
 -5.8686791e-04
 -2.5830590e-03
 -1.2069601e-03
 -1.8122762e-01
  1.2660144e-01
 -2.4794097e+00
  9.1381598e-01
 -2.4612416e-01
  1.5741078e-02
  1.7672225e+00
 -7.5913179e-01
  9.6088427e-01
  4.3687859e-01
 -1.3472387e+00
  1.0464880e+00
  2.9050570e+00
 -6.4901525e-01
 -3.5766181e-01
  1.6995252e+00
 -5.4664075e-01
 -1.9845773e+00
 -3.5234484e-01
 -6.3119650e-02
 -3.0679384e-01
 -5.9923571e-01
 -8.3904833e-01
 -6.2135386e-01
 -8.7804890e-01
 -4.4413516e-01
 -1.6546201e+00
 -8.2940739e-01
 -9.7486967e-01
 -3.2023111e-01
  2.8474715e-01
 -1.0581764e+00
 -1.6693607e-01
 -2.4343853e-01
 -2.4280281e+00
 -1.8139515e-02
  1.1825486e+00
 -4.7523537e-01
  4.9492158e-02
  3.4612047e-05
  2.8457386e+00
 -1.0327635e-02
 -2.7047908e+00
 -1.0053965e+00
 -4.1595640e+00
 -2.6553674e+00
 -5.6924458e+00
  3.1351638e-01
 -3.7279582e+00
 -2.7355435e-01
  1.0339301e+00
 -8.7381303e-02
  1.0075766e-02
  1.5427763e+00
 -3.8582555e-03
 -1.7880207e-03
  1.8418409e-01
  6.4448798e-01
  2.5334640e+00
  1.4107748e+00
  9.1276920e-01
  1.3672428e+00
  9.4672191e-01
 -2.9684845e-03
  1.2838688e+00
 -2.2075210e+00
  2.7142572e+00
 -1.2074436e+00
  2.5943491e+00
  1.2517946e+00
  1.0544098e-04
  5.2488476e-01
 -1.7737062e+00
  4.7339302e-02
 -2.4130191e-01
  2.1251061e+00
 -3.7749191e-03
 -1.0968740e-01
 -1.2959789e-01
  5.5432573e-02
 -6.1882478e-03
 -3.8318918e-03
 -2.7148122e-01
  6.8620574e-03
 -1.0748030e+00
  7.4577248e-01
  1.2219419e-01
  1.7817557e+00
 -1.4037219e-01
 -1.1339106e-01
 -3.4444291e-02
  3.5056626e-04
  3.5722560e-01
 -1.6170588e-01
 -3.0433042e-03
 -5.4846460e-01
 -4.4307068e-02
  5.0742514e-03
  3.1005055e-01
 -3.3484723e-02
 -2.1307933e-01
  1.5362388e-01
  1.1367360e+00
 -1.5251279e-03
  2.6199892e-02
  3.8124412e-01
 -1.4498472e-01
 -6.5113515e-01
 -2.6815245e+00
 -2.5364100e-03
 -1.1440243e+00
 -9.8728287e-01
 -1.2196938e-01
  6.0445864e-02
 -9.1207903e-03
 -1.2218510e-01
 -4.3803286e-02
  1.2948801e-02
 -2.5769114e-01
 -7.8958726e-01
  1.5445478e-03
  3.6717092e-03
 -3.6024998e-03
  3.6113840e-03
 -1.3863481e-02
  1.0587149e-03
  5.8548830e-02
  3.4852039e-02
 -5.8472294e-01
 -8.8791907e-01
 -7.4601388e-01
  1.7896299e+00
  1.7973978e-02
  4.8520353e-01
 -2.3522172e-03
 -2.0693224e-03
  1.7987496e-01
 -9.5196992e-02
  2.9462293e-01
  7.9590988e-01
 -5.4047559e-03
 -7.3931098e-01
  2.4259858e+00
  9.1024244e-01
  1.1831596e-01
  1.2578207e+00
 -8.0339652e-01
 -9.4745529e-01
  6.8086147e-01
 -1.8152639e-02
  4.1277747e+00
 -1.0965024e+00
 -1.3039691e+00
 -1.4206384e+00
 -7.7602094e-01
 -9.3924021e-03
  2.6362977e+00
 -1.7885000e-02
 -2.2490172e+00
  9.6740304e-03
  8.4869436e-04
  8.3496328e-04
  9.4754593e-03
  4.7494168e-04
 -7.2428542e-03
  1.6164042e-01
  7.4601560e-03
  5.5428076e-01
  3.7610525e-01
  2.5461254e+00
 -4.2657763e-01
 -1.9513518e+00
 -1.5078499e+00
 -1.5533245e-01
 -9.2050183e-04
 -1.4990810e-03
  7.4132957e-02
 -1.8716578e-01
 -5.1501387e-04
 -1.0704761e+00
 -1.1718460e+00
 -5.6244683e-01
 -1.8015228e-03
  2.5108051e-03
 -8.7024283e-04
 -7.5587007e-04
 -8.7768072e-01
  7.7806938e-01
 -1.7542288e-01
 -3.2515500e-02
  2.9458215e+00
  2.0841246e+00
 -2.7183332e-03
  1.0514009e+00
 -1.3581158e-01
  1.2687558e-01
 -6.0468093e-03
  3.8154148e-02
  1.0330501e+00
 -2.5836771e-04
 -1.0398498e+00
  1.0376865e+00
  1.3511707e-03
  3.5869149e-03
 -3.8614043e-03
  2.6354171e-02
 -1.5962197e-03
 -3.2391108e-03
 -2.6606461e-03
  1.2842255e-03
 -1.2005721e+00
  7.7113044e-01
  4.1984234e+00
 -9.7876680e-01
  3.8131219e-01
  2.3669219e-02
  3.3849120e-01
  1.4543637e-04
  1.4486256e-01
  4.4969037e-01
  1.9467622e+00
  4.3146536e-01
  1.2527628e+00
  6.0087878e-01
  1.8618178e+00
 -1.1508013e+00
  1.3887910e+00
  5.6572624e-02
 -7.4050534e-01
  7.7913523e-02
  9.5405489e-01
 -2.3829518e-01
  1.2832811e+00
 -9.7509718e-01
 -2.0500336e+00
 -6.8789095e-01
  2.5169065e+00
 -3.5600197e-01
 -5.5254787e-01
  1.2763219e-02
  1.8404702e+00
 -6.0212612e-02
  1.8844463e+00
 -1.6499001e+00
 -1.9143391e-03
 -2.7280808e-03
  4.4182539e-03
 -1.4127311e+00
 -7.3635511e-02
  1.9745596e-03
 -1.0241144e+00
 -1.2155931e-01
  3.0569477e+00
  3.9012253e-01
  5.1258618e-01
 -1.9378005e-01
  1.9014622e+00
  4.7655673e+00
  2.2180028e-01
  2.0933409e+00
 -2.1112754e+00
  7.6637109e-04
 -2.1981895e+00
  1.4970288e+00
 -8.6288416e-01
 -2.1459532e-01
 -1.2055352e+00
 -6.9700383e-02
 -1.7789840e+00
  4.3586813e-02
 -3.4124294e-01
 -8.5721099e-01
 -3.3199754e-01
 -1.3466492e-01
  1.4472083e+00
  1.0289381e-01
  1.0693563e+00
  2.8440564e+00
 -2.1444993e+00
  1.1551565e+00
 -4.0006657e+00
 -2.2405758e+00
 -5.7794583e-01
  2.6412709e+00
 -1.8432412e-01
  8.5014027e-01
 -5.5416745e-01
  1.5434575e-01
  5.8378675e-04
  5.5776888e-01
  1.1448047e+00
 -3.5223417e-04
 -1.7566014e-03
  4.2549741e-02
 -1.2795649e+00
  1.3628516e-02
  3.1587768e+00
 -3.5322207e-01
  1.6206779e+00
  3.3024946e-01
 -1.7154847e+00
  3.8621549e-02
 -1.3564110e+00
  9.9730134e-02
 -1.1731837e+00
 -2.6528502e-01
  1.2183913e+00
 -2.0931682e-01
  4.9179709e-01
  1.3299148e+00
 -5.1042187e-01
 -8.3670145e-01
 -3.2473040e-01
  1.1489521e-01
  1.3660198e+00
  1.4995355e-03
 -2.3671544e+00
  5.6082904e-01
  1.2272578e+00
  1.2019680e-02
 -5.1020902e-01
 -7.0968324e-01
 -3.5764143e-02
  1.7029057e+00
  1.2600520e+00
  8.1309468e-01
  2.3709638e+00
 -3.5556471e-03
  1.3886311e-03
  3.5642516e-03
  1.2472938e+00
 -9.7865285e-03
  2.6864512e-03
  1.3190472e+00
 -2.2005830e-03
  5.0874107e-02
  6.2146522e-03
 -1.0285862e-02
  1.9602298e-03
 -7.6179317e-04
 -1.4733672e-02
 -4.5235716e-03
  5.6384946e-03
  1.2905447e-02
 -1.1794490e-03
  3.3030410e-03
  2.1277495e-04
 -3.2154664e-03
 -9.8124624e-04
 -4.7744927e-03
 -3.4954393e-04
  5.1910954e-04
  2.5867790e-03
  1.7143276e-03
  1.6953954e-03
  1.8932308e-03
  3.2406664e-03
  3.0627688e-03
  1.1670964e-03
  4.0205781e-04
  6.0258023e-03
  6.1189639e-03
 -6.0405902e-04
 -3.2048731e-04
 -8.8115165e-04
 -6.6007799e-03
  8.0453791e-04
 -6.7426651e-03
 -1.7336411e-02
  9.4880263e-04
 -6.2697672e-04
 -3.2742270e-03
  3.2591654e-03
 -9.2248227e-03
  4.1251364e+00
  1.7092278e-03
 -4.3627503e-03
  8.4385177e-04
 -4.9239625e-03
 -4.1165241e-04
  7.8259048e-04
 -1.7324552e-01
 -3.5947950e-03
  1.0150802e+00
 -6.1207549e-03
  8.1867212e-03
  7.1271410e-04
  5.1685921e-03
  3.5761227e-03
  7.3712333e-03
  1.9156851e-03
  7.7536191e-05
  4.8233140e-03
 -3.7998622e-03
 -5.4031704e-04
 -4.5440895e-03
 -1.0275026e-04
  1.9753915e-03
  1.3223314e-03
  1.9122366e-03
  2.9423641e-04
  8.6559337e-03
  8.8615902e-03
 -2.9786720e-03
 -6.1783672e-04
  2.1841831e-03
 -3.5442563e-03
  4.2044851e-03
  1.5404143e-03
  6.2014833e-03
 -4.9378644e-03
 -1.6791496e-03
 -2.2424571e-03
 -3.5721527e-03
  4.1947449e-03
 -1.0943435e-02
  1.3554955e-03
  3.1236955e-03
 -8.0550916e-04
 -1.2617453e-03
 -1.5262631e+00
 -3.5562041e-01
  1.1604532e+00
  2.5458542e-01
  8.1862736e-01
 -3.5016556e+00
 -5.4635024e-01
 -8.3332336e-01
 -1.7105844e+00
  4.3924389e+00
  2.0376997e-01
 -3.4585777e-01
  3.6309569e+00
  1.6463132e-01
  6.2493581e-01
  9.4509071e-01
  2.3579462e+00
 -1.6687579e+00
 -3.3108145e-02
  1.7299945e+00
  1.0788769e-01
 -2.1212254e+00
 -2.7935488e+00
 -1.4840659e+00
  3.7996414e-01
 -1.1751308e+00
  1.6618522e+00
 -2.0954680e+00
 -2.3308349e-01
 -7.4078470e-01
 -2.2896948e+00
 -8.4839630e-01
  6.5168262e-01
  3.3107450e+00
 -1.1084512e+00
  9.1652505e-02
  1.4850019e+00
 -1.9988973e-02
 -3.1496158e-01
  3.3670783e-03
 -9.1687053e-01
 -2.7402523e-03
 -2.0716066e+00
  1.9392211e+00
 -1.1434265e+00
 -4.4603643e-01
  2.3581350e+00
  1.7890673e-02
 -4.4198958e-03
 -9.2262544e-02
 -9.2457384e-02
  9.5332455e-04
 -1.2610773e-02
  8.3273448e-02
  1.7942771e-01
  1.3619505e-02
 -2.7966323e-01
 -2.1212685e-04
  2.0465294e-02
 -7.5713114e-04
  2.7825352e-02
  8.9990342e-01
 -5.0979140e-03
  5.1264364e-01
 -8.2535923e-01
 -1.4480400e-02
 -3.3644829e-02
 -1.0356413e-03
 -3.3441501e+00
  6.4898669e-03
  7.5753871e-04
 -3.1286671e-03
 -9.2556392e-04
 -4.7308845e-03
 -8.2846329e-02
 -4.4877166e-01
  1.4089678e-01
  1.2941114e-03
 -1.2917105e-02
  2.3021449e-03
  7.1232446e-04
 -2.9424767e-03
  2.3909758e-03
 -5.4054600e-03
 -1.0920628e+00
 -1.1766304e+00
  4.4077212e-01
 -5.6666430e-02
  1.8809776e-01
  1.0868788e+00
 -3.6822171e+00
 -1.5996963e-01
 -7.3945597e-02
 -4.2191103e-01
  1.5339407e+00
  1.9894144e-01
 -4.9519509e-01
  4.7688591e-01
  1.3182767e-01
  2.4489415e+00
 -4.2190388e-01
  1.4707463e+00
  6.6415632e-01
 -1.1342543e+00
  6.2177181e-01
  1.7955635e+00
  3.0134821e-01
  3.8869900e-01
  5.0504398e-01
  1.4475894e+00
  3.4616718e+00
  6.6540115e-02
  1.3906046e+00
  7.0454305e-01
  1.2754266e+00
  3.8000831e-01
  1.3516581e+00
  1.0810497e+00
  8.1414300e-01
 -8.1219394e-03
  1.3963421e-01
 -1.0200561e+00
 -2.1122167e-01
  2.1623139e+00
  1.3533579e-03
  2.9596398e-03
  1.3018209e+00
  3.3140186e-02
  1.7056398e-03
  2.2466853e-01
  8.6536819e-01
 -7.9809725e-01
  5.7264030e-01
  3.9156826e-04
 -6.1087944e-03
 -6.1361007e-03
 -1.2384622e-02
 -8.0243148e-02
 -1.7292794e-02
  1.7027806e-02
 -1.0356685e-02
 -1.9785613e-04
 -4.8591554e-01
  1.2371102e-03
 -2.4540952e-04
  5.1221759e-03
 -8.9198776e-04
 -7.0547545e-03
 -3.0464190e-01
  2.5300674e+00
  8.7208754e-01
 -4.2792735e-01
  5.3578522e-02
 -5.6983055e-05
 -3.9161299e-03
  1.6733518e-04
  1.0622307e+00
  3.3688240e-04
  1.3512532e-03
 -5.0432200e-04
  1.7622845e-02
 -5.9287425e-04
 -2.5408168e-03
  6.0728509e-03
  4.8046213e-04
 -3.1774028e-03
  3.3049288e-03
  4.4676871e-03
  1.3413662e-01
 -5.3768367e-01
 -8.4776032e-01
  1.7862746e-01
 -2.6259216e-02
 -1.1920601e+00
 -3.3752296e+00
  1.6097531e-01
 -2.4401731e+00
 -2.1048894e-03
  6.1349934e-01
  5.0837523e-01
 -1.0787686e+00
 -1.5162583e-02
 -3.1283361e-01
 -2.4115428e-02
  2.0563171e+00
  7.0947301e-01
  1.3595849e-01
  5.4689232e-02
  1.2720101e-01
 -9.5240933e-01
  1.3568900e+00
  4.4867873e-02
  2.3512061e+00
  5.6797579e-02
  5.6794286e-01
  1.2105267e+00
  5.4424614e-02
  8.1848592e-01
  9.1181040e-01
 -2.4358153e-01
 -2.1584357e-01
  6.2276429e-01
 -6.0718707e-03
 -5.9684175e-03
  2.3315971e-01
 -3.8028834e-03
  5.1273379e+00
 -1.7053212e-04
  1.9767690e-03
 -1.1017697e-03
  1.2524860e+00
  1.3449669e-01
  2.9420948e+00
 -3.1829576e+00
 -8.3753985e-01
 -2.3900535e-02
 -2.0970722e-01
 -1.8493146e-01
  6.9919199e-02
  5.7591605e-01
  1.7043068e+00
 -3.5439411e-01
  6.3142920e-01
 -6.9634974e-01
 -5.9844214e-01
  2.6681895e+00
  4.6522099e-01
 -1.1136528e+00
  2.8534999e-01
  2.3527098e+00
 -1.8430207e+00
  1.4458492e+00
 -2.0713387e+00
 -1.1723974e+00
 -1.1070042e+00
 -6.9040000e-01
  2.3905783e+00
 -5.6936401e-01
 -6.3958114e-01
 -2.8720510e+00
 -4.3827924e-01
  8.8506365e-01
 -1.7202782e-02
  1.8742675e-01
 -1.5405796e-03
 -5.7836068e-01
 -3.3236552e-02
  1.8335527e-01
  4.0196866e-01
  3.7536246e-01
  3.5494713e-03
  2.6078153e-01
  2.0678422e+00
 -7.7166581e-01
 -6.1813290e-03
  1.1536241e+00
  3.2166255e+00
 -2.4036860e+00
  1.2376139e+00
 -3.1332262e+00
 -1.6755643e-03
 -9.7677503e-03
 -9.1603434e-01
 -1.3029192e-01
  3.3995090e+00
 -3.4719315e+00
  3.6116186e-01
 -5.9673017e-01
  1.1691642e+00
 -2.4559110e-01
  4.5586657e-02
  1.2302086e+00
 -2.3208270e-02
  2.5578016e-01
  1.1360846e+00
  7.4100065e-01
  4.0016934e-01
  8.4954733e-01
  1.3925174e+00
  7.6531284e-02
  6.0538471e-01
 -1.5583414e-01
 -2.3048736e-01
 -1.2106428e+00
  5.1429123e-01
  8.8284719e-01
 -1.7453589e+00
 -7.7047974e-01
  5.4186851e-02
 -7.6311138e-03
  3.4248836e-03
 -6.4219487e-01
  3.2109183e-01
  3.6023087e-03
 -8.7139255e-01
  1.7081285e+00
 -3.1172249e-01
  1.6774759e-01
 -3.5644736e+00
  3.3889937e+00
 -7.4935186e-01
  1.8676784e+00
  8.4459782e-03
  1.1582125e-03
 -3.6618245e-01
  1.4686921e-01
 -9.1904932e-01
  1.5921205e-01
  3.1830098e-02
 -9.8701745e-02
  1.0091277e+00
  5.6463414e-01
 -1.9638185e-01
 -9.0514845e-01
  1.6713725e+00
 -7.9265910e-01
  2.4600220e+00
 -5.3974706e-01
  6.9297266e-01
 -1.4798075e+00
  2.0967169e+00
 -9.6155696e-02
 -6.7977953e-01
  1.3029901e-02
 -3.9878222e-01
  1.6091912e+00
 -2.7489871e-01
  2.3704542e-01
  4.2812577e-01
 -3.7518613e-02
  4.1606995e-01
 -4.5496034e-03
  3.1814154e-03
 -1.0789930e+00
 -1.0689227e-03
 -5.4800790e-02
  1.3720553e+00
  2.5925788e-01
 -1.4690835e+00
 -1.6882399e+00
  2.6097232e-01
 -3.3554700e-01
  7.7794307e-01
  2.3124440e+00
 -2.0069339e+00
 -2.0929732e+00
 -2.6338274e+00
 -1.5303872e+00
 -1.0742651e+00
  1.2399620e+00
  2.1240523e+00
 -9.0773952e-05
 -7.6539171e-01
  8.4760320e-01
 -8.4250557e-01
 -9.5003617e-01
  7.8334838e-01
 -4.1847786e-01
 -1.9882410e+00
 -4.8303986e+00
 -1.9678801e-01
 -1.3005537e-03
  1.7342837e-01
  1.0926790e+00
 -2.1057372e+00
 -1.7704642e+00
 -7.6777734e-02
 -9.0515558e-03
 -3.3526674e-01
  7.1449208e-01
 -1.7556716e+00
 -1.2900406e+00
  8.8572347e-01
  1.5700923e+00
  1.5959281e+00
  4.0649101e-01
  1.8165215e+00
 -5.7270157e-01
 -1.1270431e-01
 -9.5355570e-01
  5.8743578e-01
  9.1257614e-01
  2.5282149e+00
  5.9401803e-03
 -9.3051898e-01
  2.4510660e+00
 -6.3116676e-01
  5.9911740e-01
 -1.9296609e-01
  1.0496221e-01
 -2.3488295e-01
 -4.8661923e-01
  1.7574033e-01
 -1.6611757e+00
 -7.7499658e-01
 -6.5522873e-01
 -1.8729078e+00
 -5.2113408e-01
  2.9590696e-01
 -1.4106152e+00
 -1.8438172e+00
  2.1754101e-02
 -9.1510110e-02
  8.1446916e-01
 -3.2966685e-01
 -6.1203096e-02
  1.5960561e-01
 -8.9194995e-01
 -1.8157275e+00
 -1.4682301e+00
 -1.1510227e+00
  4.7303319e-02
 -2.9813021e-01
  5.8425832e-01
 -1.8019766e-01
  2.1908116e+00
  2.2675975e-01
 -2.3147175e-03
  7.0206285e-01
 -2.9278165e-01
  1.0446162e+00
 -7.1961403e-01
 -1.3737457e-01
  4.5379820e-01
 -6.7645085e-01
  4.1130349e-01
  5.3488147e-01
  1.6495840e-01
  4.1553253e-01
 -6.7996091e-01
 -1.8459021e+00
 -1.3797906e-01
  1.6759517e+00
  6.1164010e-01
 -1.7858858e+00
  1.5295446e+00
  1.1205751e-01
  4.7281143e-01
 -1.4461824e+00
  2.1826282e+00
 -1.1556343e+00
 -2.9369075e+00
  1.7394680e-01
 -8.8754734e-03
  5.4396830e-02
 -5.8818537e-01
  1.4706862e-01
 -1.6335099e-03
 -1.8426306e-04
  6.4418000e-01
  6.9463921e-01
  9.2650032e-01
 -7.1465218e-01
  5.5934113e-01
 -3.9367837e-01
 -6.8414392e-04
  4.9990090e-03
  7.8895932e-01
  3.3848445e+00
 -4.4025323e-01
  1.0154595e-01
 -2.8970578e-01
  4.9607141e-04
 -5.4402435e-01
  4.0740672e-02
 -5.9242791e-01
 -2.6124066e-01
  1.9616595e-01
  7.6589935e-02
 -5.8338281e-02
 -1.4540108e-01
  5.8567249e-03
  1.2592886e-03
  4.9924967e-01
  7.2972387e-02
  6.2524346e-03
  8.9551893e-04
  9.0941435e-01
  1.8079120e-01
  2.3962121e+00
 -1.8704902e-01
  2.0605690e+00
 -1.6816403e+00
  1.5307952e+00
 -2.3400265e-01
  1.4748649e-01
  3.6179748e-01
  6.9251314e-02
 -4.7359568e-01
  3.0200106e-01
  2.1008973e-01
 -1.7393676e+00
 -6.9561899e-02
  4.9063036e-01
  5.4872926e-02
  8.5046053e-02
  1.6010474e-01
  4.9395602e-02
 -7.9474294e-01
  6.9060469e-01
  7.0711575e-02
  6.6059143e-03
  7.3134802e-02
  5.1717483e-02
 -1.0889624e-01
  8.2673603e-01
  7.3185080e-01
 -1.2870833e-01
  3.3328796e-04
  3.0622262e-01
  1.4110501e+00
  7.7667788e-02
  6.4380050e-01
  2.7800186e-03
 -1.0098184e-02
 -2.2308131e-04
 -9.1474938e-01
 -2.5258407e-03
  4.6338467e-03
 -1.2198632e+00
 -2.0576413e-01
 -4.8412445e-01
  1.5303493e-01
 -7.5876540e-01
  4.2357683e-01
  1.4598799e+00
 -2.1073871e+00
 -2.9515058e-03
  5.4555856e-02
 -8.8728983e-03
 -4.9137273e-01
 -3.1089345e-03
  1.8299158e-01
  1.4142177e+00
 -4.4870815e-01
 -1.2327203e-01
 -4.3841878e-01
  1.3193670e-02
 -6.5749252e-01
 -4.9894011e-01
 -8.9172679e-01
  4.4633448e-01
  6.6272247e-01
  1.6333261e-01
  4.8778582e-01
  5.0928128e-01
 -4.2647278e-01
  5.6837790e-02
 -1.0800092e-01
  9.3093914e-01
  2.1937968e-04
  6.2159579e-03
 -2.8456794e-03
 -3.0078411e-01
 -5.2862573e-01
 -7.9731958e-04
  1.2609589e+00
  4.8946035e-03
 -2.8196543e-03
 -1.2474518e-01
  2.1135218e-02
 -3.4767959e-02
 -2.5370117e-02
  5.7867241e-01
 -1.0687217e+00
 -4.6262026e-01
 -1.8119222e-01
 -1.5908984e+00
 -1.4279313e+00
 -1.2950031e-02
 -3.4463715e-02
  3.4267190e-03
  1.9632846e-01
  1.2694712e-03
 -2.8812359e-03
  1.9685237e-03
  2.2559781e-02
 -5.0213430e-03
 -3.5068388e-03
  7.5138777e-01
  1.7046494e-03
  2.8854814e-01
 -7.2893577e-06
 -2.4195445e+00
 -5.2858889e-01
 -8.1826275e-04
  4.9957745e-03
  1.5342027e-04
 -7.8498507e-03
  4.6068490e-02
 -1.4090954e-01
  2.2215571e-02
 -5.5435034e-03
 -8.1860647e-03
 -2.8438307e-02
 -2.0106511e-02
 -1.9479678e+00
 -1.0090445e-03
  1.6370044e-03
 -3.6104070e-03
 -2.3197054e-03
  7.6116371e-04
 -8.1806350e-03
 -2.8649303e-03
 -6.7669516e-03
  4.3944698e-02
 -7.5975282e-04
  6.2739765e-03
  9.2157361e-04
  3.7013683e-03
 -7.3603964e-03
  2.1683592e-04
  4.7558206e-03
  1.7741240e-03
  1.2534740e-02
  2.7331859e-03
  8.5900482e-03
 -2.1999343e-03
  1.3507089e-03
  1.7979263e-03
  3.0282349e-04
  1.3102234e-03
  1.0179973e-03
  7.8393007e-03
  8.0129616e-03
  6.8415614e-04
  2.4650043e-03
  5.6722574e-04
  2.1503221e-03
  3.2887680e-03
 -1.4244643e-03
  1.8378053e-02
  9.8712812e-04
  2.6991074e-03
 -7.2508128e-03
 -7.8638591e-04
  3.6222485e-04
  2.0662849e-03
 -2.7140707e-03
  2.6447617e-03
  1.2153357e-03
 -5.0429711e-03
 -8.1414188e-04
  3.5770470e-03
 -2.6104372e-04
  2.9464036e-03
  3.2899559e-01
 -8.0248630e-03
  4.9691787e-03
 -3.4408743e-04
 -2.9301699e-03
 -2.4554834e-03
 -7.5049890e-04
 -4.2324053e-04
  8.8112516e-04
 -3.5204422e-03
 -1.0669362e-02
  4.2275861e-03
 -1.6939209e-03
 -1.3994093e-02
 -2.5011508e-03
  6.9481856e-03
  9.1864318e-03
 -2.5027415e-03
 -4.8513836e-03
 -2.0943412e-03
  2.1917720e-01
  4.9326372e-01
  1.3367324e-01
 -7.5232296e-04
 -9.4648171e-03
  3.1099853e-03
 -2.0861608e-01
  1.2495494e-03
  2.3424640e-04
 -1.7734318e-03
 -1.8545949e-03
 -7.8470417e-04
  1.2459071e-02
  2.5793742e-03
  7.9808832e-04
 -1.5477048e-03
 -1.2678595e-03
 -6.7360643e-03
  1.7539575e-03
  2.8507906e-04
  1.6314168e-04
  4.2195100e-04
  4.9883518e-02
  4.8188633e-01
  2.0059519e+00
 -1.2885616e+00
 -1.8077090e+00
 -6.8748194e-01
 -1.4433459e+00
 -3.4217042e-04
 -1.4935317e+00
 -6.7125827e-01
 -3.3027050e-03
 -5.0609893e-01
 -9.7877951e-03
  4.4307512e-01
 -2.4368856e+00
 -6.5565258e-01
 -1.0934207e-01
 -2.2297433e-01
  2.5700593e+00
  7.8999233e-03
 -4.6185204e-01
  4.8605554e-02
 -6.7748702e-01
  8.7298834e-01
 -5.5801654e-01
 -8.1298590e-01
  1.6895182e+00
  1.2517110e+00
  7.1258694e-01
  1.2445083e+00
 -3.8343039e-01
 -8.5967553e-01
 -1.6630125e+00
 -8.3666813e-01
 -5.2000117e-01
  4.6919384e-03
  5.5205729e-03
  4.0055431e-02
 -8.4287122e-02
  6.1763161e-01
 -2.2455503e-03
  1.1898071e+00
  3.6889676e-04
  2.5794548e-03
  1.7955997e-04
 -2.5990861e-03
  1.5815278e-03
  1.1250750e+00
  8.8187895e-04
  4.7870050e-03
  2.4309976e-04
  3.0770268e+00
 -4.8531944e-01
  8.9639978e-04
  3.9922455e-03
 -3.2572814e-03
 -1.5908229e-03
 -3.5884688e-03
 -5.7429774e-03
 -1.6387701e-03
 -1.1982672e-03
  9.5140233e-05
  3.4419657e-03
  5.1627116e-04
 -1.4531106e-03
 -1.0903836e-03
 -1.3094165e-03
  1.6459490e-03
 -3.6024011e-04
  8.4445020e-04
  3.3917886e-03
  5.2429656e-03
  2.1103749e-03
 -3.1529425e-03
  5.6731026e-03
  1.3243427e-03
 -2.8732514e-03
 -3.0331861e-03
  2.2612733e-03
  4.8134630e-04
  1.1405454e-03
  1.8794030e-04
  7.4498786e-04
  5.0350791e-03
  7.9870932e-03
 -7.6701622e-03
 -3.1560573e-03
 -3.2426666e-03
 -3.1179585e-03
  2.2128565e-02
  2.3783161e-03
 -6.2823659e-03
 -2.1306092e-03
 -3.5187291e-04
  5.1293797e-03
  2.2375038e-04
 -3.9083860e-03
  5.6816526e-03
  2.1662300e-04
  6.3779792e-03
 -1.2080247e-03
 -2.8474242e-03
  8.9722156e-04
 -1.0146084e-02
 -7.1234107e-03
 -2.7914161e-03
  8.8797548e-05
 -2.0602059e-03
  2.3427114e-03
  1.6119959e-03
  5.1486585e-04
 -1.7410404e-03
 -1.2205557e-03
  9.8125474e-04
  7.5897708e-04
 -2.0698765e-03
  4.2244052e-03
 -1.3713890e-03
  3.4314792e-03
 -3.4840984e-04
 -3.1328655e-03
  2.4938968e-03
  5.5993795e-03
 -3.1103609e-05
  5.3846226e-03
  2.9755880e-03
 -1.0955488e-02
 -1.4340185e-01
  3.5570938e-02
  2.2161882e-03
 -2.7468579e+00
  1.1750960e-01
  1.6885286e-03
 -7.3573515e-03
 -1.7207594e-03
  3.6765866e-03
 -6.9867267e-04
 -3.3874663e-03
 -4.7202865e-04
 -9.1864672e-03
  2.6752203e-04
  3.0896675e-03
  3.8880035e-03
 -3.1875807e-03
  3.1309363e-03
  2.7925603e-03
 -3.6392331e-02
 -1.7895059e-03
 -3.0792186e-01
  7.8372500e-04
  1.5187509e-04
  3.8828814e-04
 -3.8358369e-03
 -1.9470728e-03
 -2.4943214e-03
  1.8638738e-03
 -6.0860384e-03
 -5.9660738e-03
 -5.3682504e-03
  6.4624320e-03
 -1.0923262e-03
 -9.9214083e-03
 -1.4055123e-03
  1.1646945e-03
 -1.7314844e-03
  1.4347227e-03
 -9.5656281e-04
  1.7701018e-04
  7.8503031e-01
  9.8672968e-01
 -2.0232103e+00
  1.8478285e-01
 -1.5076991e+00
  3.7717288e+00
  5.6859702e-01
 -2.9696079e-03
  9.0647070e-04
 -1.9002046e-03
 -6.2919790e-01
  6.8989787e-03
 -2.7863085e-03
 -7.9763756e-04
  1.5372741e+00
  1.3637336e+00
  2.6726117e-02
 -1.6720781e-01
  6.3368906e-03
 -3.5120952e-01
  5.7043988e-01
  2.1359728e-04
 -9.8856822e-02
 -5.5981893e-03
 -1.8892711e+00
  5.2131546e-01
  1.9566191e-03
 -9.5678633e-01
 -3.5247959e-03
 -2.3247896e-01
 -5.6797039e-04
  3.4587198e-01
 -3.8663912e-04
 -3.0177312e-03
 -5.8575833e-01
 -4.2435196e-03
  8.5076755e-03
 -2.2159778e-03
  7.0794614e-04
  1.4422268e-03
 -1.0550707e-03
 -1.3431145e+00
  1.3377136e-03
  1.5088125e+00
  1.6427077e-02
  1.0846888e-03
  1.2986830e-01
 -2.0469272e-01
  6.2179985e-03
 -2.0344793e-03
 -9.5695332e-03
 -1.4799235e-03
  1.2256774e-02
 -5.6538923e-04
  1.8662034e-04
 -2.9859034e-04
 -1.7739412e-03
  4.1453708e-03
  8.6279894e-04
 -2.9381056e-04
 -9.8300470e-06
 -6.5489989e-03
  1.3230065e-03
 -2.1086047e+00
  1.9810699e-01
  2.1103718e-03
 -3.2941571e-03
 -3.3318039e-03
 -1.5460822e-03
 -1.0104738e-03
  2.4769783e-03
 -6.2393030e-04
  5.2842486e-04
  3.1418244e-03
 -2.2172884e-03
 -2.2068778e-03
 -7.8694653e-03
  5.0555030e-04
 -1.8019868e-03
 -2.7573333e-04
 -3.1838351e-04
 -1.3905619e-03
  1.5094704e-03
  3.3400769e-04
  1.7190620e+00
 -1.2501894e+00
 -8.6924635e-02
  1.0378590e+00
  6.9494969e-01
  2.3569772e+00
 -7.2918123e-01
 -1.7084482e-03
 -4.1346913e-03
 -9.6138055e-03
 -8.6077178e-01
  6.3966173e-01
  1.9917089e-02
 -6.4466733e-01
  1.2335354e+00
 -2.4522314e+00
  2.5370049e-03
  5.7679379e-01
  1.2512978e+00
  2.1962690e-01
 -5.4071200e-01
  1.3898164e+00
  5.6411099e-01
  3.0584618e-02
 -4.2105816e-02
 -1.1372444e-01
  3.8020415e-03
  8.4983164e-01
 -7.8313053e-02
  2.0930128e+00
 -1.1171729e-02
  6.7656195e-01
  5.6104418e-03
 -1.3810435e-01
  1.4668316e+00
 -1.1268400e-03
 -4.9369340e-03
 -2.1353413e-03
 -2.2449584e-01
 -7.6465148e-01
 -1.1121047e-03
 -7.4518591e-02
  2.5958011e+00
  1.4215038e+00
  2.4443550e-01
  1.7966868e+00
  8.5078979e-01
  3.4243011e-01
 -5.0999649e-02
 -1.1888205e-05
  5.2004205e-03
 -1.4863331e-02
 -1.8066428e+00
 -2.6268309e-02
 -4.1363105e-01
  1.3383871e+00
  7.6217297e-03
  7.2200626e-02
  1.6833952e-01
 -8.3427668e-01
 -3.6199215e-01
  3.2205519e-01
 -1.7756064e+00
  8.8866334e-03
  1.2051865e+00
 -9.2846400e-01
 -6.2697537e-02
 -1.8159758e+00
  5.8732980e-01
  3.7388742e-01
 -1.5103287e-01
 -8.5271627e-02
  3.7850675e-03
 -1.0386898e-01
  1.9467892e-02
  2.1763628e-03
 -2.1908110e-01
 -5.3695603e-03
 -8.0235429e-02
 -3.9811810e-03
  1.9519225e-01
  9.2873350e-02
 -1.4019494e-02
 -6.0516052e-02
  8.1485556e-03
  4.7531944e-02
  1.3366346e+00
 -2.0894024e-03
 -4.2689601e-03
  3.1291337e-03
  1.6418174e-03
 -8.9803670e-04
 -4.5222067e-03
 -8.6624539e-03
 -7.7331648e-03
 -5.6499983e-03
  6.6737332e-03
  1.6035169e-03
 -2.1617354e-03
  5.2999980e-03
 -1.3388649e-03
  1.5003963e-02
  2.9712557e-03
 -2.9074240e-03
 -2.7052790e-03
 -2.7686269e-03
 -9.8679564e-04
 -2.1219703e-03
 -8.3467919e-01
  1.9494648e-03
  2.7936092e-03
  3.8467795e-03
  4.0279385e-03
  2.2809614e-01
  2.2521801e-04
 -8.9507578e-03
 -1.4604899e-03
  1.1139815e-03
 -2.7078143e-03
  1.8610894e-03
 -4.3857768e-03
 -9.6600887e-04
 -1.9725622e-03
 -1.5071506e-04
 -4.2641995e-04
  6.5681874e-03
 -8.4908962e-01
  6.6369748e-01
 -2.0174530e+00
 -2.5907114e-01
 -2.0521441e+00
 -1.1794779e+00
 -2.0062694e-02
 -4.9737589e-03
 -4.2766342e-01
 -3.1682940e-03
 -7.2630662e-01
 -1.5427378e-01
 -1.2973323e+00
 -7.3942402e-03
  2.9833622e-02
  1.1063477e+00
 -5.4409813e-02
  1.8657456e-01
  1.7503049e+00
 -1.4481322e-01
 -2.0981975e+00
  5.7090920e-01
  2.6612325e+00
 -6.7058161e-02
  2.7464598e-02
 -4.4923076e-01
 -8.2160950e-02
 -1.0383306e-03
 -2.8897616e-01
 -3.0627099e-03
  4.9383543e-03
 -6.2382430e-01
 -1.6791372e-03
  9.3527287e-02
  8.4092450e-01
 -6.6974694e-01
  2.5966123e-01
  6.8952437e-03
  4.1281739e-01
 -1.0238101e-02
  4.7010340e-02
  1.0002156e+00
 -5.3030755e-03
 -1.4278641e-01
 -8.6875431e-02
 -1.0772055e-02
 -4.5667659e-04
  2.6789245e-01
 -3.0905273e-04
  1.4400473e-03
  3.4748779e-03
  1.0154691e-02
  1.0897473e-02
 -7.1255671e-04
 -4.6111364e-04
  6.5175170e-04
  3.0917118e-04
 -2.8892593e-03
 -2.8426715e-03
  1.0748416e-03
 -1.3220903e-03
  4.5325956e-03
  3.5148587e-05
  4.4968131e-04
 -2.9363668e-01
 -1.1454489e-03
  1.7934041e-03
  3.9289864e-03
  4.3895864e-03
  5.5721258e-03
  3.9096110e-04
 -6.4178236e-02
  2.5231990e-03
 -9.7532163e-04
 -7.3165745e-03
 -4.4921059e-03
 -8.2052051e-04
 -3.3497273e-03
  1.1372157e-04
 -1.1944054e-03
 -8.3183367e-03
 -1.1227017e-03
  2.8385704e-03
 -2.1291627e-03
  7.8639060e-01
  1.1847186e+00
 -1.5883324e+00
 -2.3460691e+00
 -1.1507916e+00
 -2.6613700e+00
 -4.0470734e-01
 -3.4879590e-03
 -4.7506520e-01
  2.0388816e-03
 -1.1290107e+00
  4.8365492e-01
 -2.0735899e-03
  2.9604340e+00
  6.3240206e-01
  6.9390021e-02
 -1.7366661e-01
 -4.8155140e-02
  3.6003583e-03
  5.0738212e-02
  1.6605200e+00
 -5.1796556e+00
  2.3093503e+00
  1.6739595e+00
  7.6734227e-01
 -3.1862516e-02
  4.7348785e-01
 -8.4112424e-01
 -6.2468289e-03
  4.7805339e-01
 -2.8499326e-01
 -1.1235439e-01
 -8.2604602e-02
 -5.3067690e-01
  5.5513058e-02
 -3.5469830e-01
 -1.3823293e-02
 -1.0028949e-02
 -1.5233008e-03
 -1.1643811e-01
 -3.9633754e-01
  3.1810722e-03
 -4.6111960e-03
 -4.1581458e-01
  7.0520473e-01
 -9.4224475e-03
 -6.4215976e-01
  4.4621271e-01
 -6.0511619e-01
 -1.9826083e-03
 -5.3171942e-04
  1.7620202e-02
  6.4065093e-01
  3.0211604e-03
  3.7494369e-02
  9.0131205e-01
 -4.5914241e-04
 -1.1860479e-01
 -3.4770814e-03
  2.6967496e-01
  3.2823734e-04
  8.9774735e-02
  1.3522914e-03
 -3.3205785e-03
  1.1193571e+00
  3.9394642e-03
  2.3814654e-03
  2.2857215e-03
 -8.3169611e-03
  3.7316296e-03
  1.7097291e-01
 -4.5014970e-02
  5.7090074e-03
 -1.0829999e-03
 -4.7393668e-02
 -1.8057823e-03
  1.4005849e-01
  1.1076464e-03
  1.5724846e-03
  1.2865537e-03
 -2.8466141e-02
 -3.3095203e-04
 -2.8542010e-03
  2.9087145e-02
 -1.2749383e+00
 -6.3881558e-01
  3.0825362e+00
 -1.7257010e+00
 -1.5493214e-01
  6.7385983e-01
 -2.4064405e-04
 -4.6148433e-04
 -5.7522873e-03
  1.8058948e-01
  1.9749445e-01
  2.6237479e-01
  8.8500261e-01
  4.4058692e-01
 -5.1031560e-02
 -7.8404713e-01
 -4.7889349e-01
 -2.7600777e-01
 -4.7039104e-01
  1.2788497e-01
 -2.3705864e-01
 -1.5400189e-01
  2.6799324e-01
 -4.3279669e-01
  4.4066784e-01
 -6.0053730e-01
  7.2320259e-01
  3.2870439e-01
 -1.1810201e+00
  6.3124537e-01
  4.1150734e-01
  1.7807820e-01
 -1.9419184e-01
  1.1649707e-01
  1.0410590e+00
  3.6880039e-04
  8.3992875e-04
 -6.6416182e-02
  8.1090052e-03
 -5.6795508e-01
 -1.1772204e-01
  8.4084696e-01
  4.4878749e-03
 -1.8062010e-01
 -1.0125618e+00
 -2.6514346e-03
 -8.7997687e-01
  6.4514893e-01
  1.0661757e+00
 -4.4536157e-04
 -1.3254344e-02
  2.8088444e-03
  1.0254368e-03
  5.5727181e-03
 -1.9207306e-03
  3.0291311e-02
  1.8807497e-02
 -5.3989623e-02
 -3.5988302e-03
 -6.4434935e-03
 -5.0569570e-04
 -3.1657636e-03
 -5.7000238e-01
  1.6312158e-03
  5.8582966e-04
  2.9535792e-04
 -4.0466152e-03
  1.8366076e-03
  8.2060900e-03
 -1.2167105e-01
 -2.2925520e-03
 -1.6906539e-03
 -3.2314928e-03
  6.8682981e-01
 -7.4851536e-03
  8.8893750e-04
 -3.2677286e-04
 -7.5389817e-03
  9.1659045e-03
 -7.6561637e-04
 -1.6874662e-03
  1.4395717e-03
  3.2212324e-03
 -1.3135952e-02
 -9.5446577e-04
 -5.3414482e-01
 -1.9863720e-01
 -4.9380031e-03
 -7.5278783e-01
 -5.6267130e-01
 -5.6301299e-02
 -4.8639681e-03
  8.4806364e-03
  5.9017106e-03
  1.3185313e-01
  3.2982167e-02
  4.9409503e-03
 -1.4297540e-02
 -2.6685754e-03
 -1.6526274e-01
  5.5312230e-05
 -1.6284356e-03
  4.2375002e-02
  2.0700772e-01
 -3.6673467e-03
 -1.8858279e-03
 -3.3943437e-02
 -6.8097855e-03
  1.0544699e-02
  2.8043361e-03
 -2.8051376e-02
  2.1783570e-02
  2.1385031e-03
 -1.3597388e-03
 -1.7952776e-03
 -6.8471802e-04
  3.1850752e-03
 -1.6106592e-03
  5.9421506e-04
 -1.1937837e-03
 -3.5709157e-03
 -6.9313929e-03
  3.7710429e-03
  3.0393535e-04
  4.5601523e-04
  3.0071370e-03
 -6.9428497e-04
  9.4067007e-02
  4.0142133e-04
 -3.5617014e-03
  4.9221697e-03
 -1.0998168e-02
 -5.3876597e-03
 -4.9242540e-04
 -2.2158339e-03
 -1.0373290e-03
  2.4688295e-03
 -4.4142280e-04
 -1.1383898e-03
 -4.7075823e-03
 -8.3083159e-04
 -4.5359200e-03
 -7.9315627e-04
  3.8253935e-03
 -2.5293141e-04
  1.6057570e-02
 -1.6410829e-04
 -4.7517726e-03
  3.4335530e-03
 -5.3103664e-04
  1.0580297e-04
 -3.0264158e-02
 -2.5860330e-03
  6.1871496e-04
 -1.1261337e-03
  4.2697811e-04
 -1.4846096e-03
  1.9897595e-03
  6.3006228e-05
  3.6581179e-05
 -4.5858487e-04
 -1.2008322e-04
 -3.6302006e-03
 -8.1047900e-03
 -5.0342304e-04
 -2.1454890e-03
 -5.8207745e-03
  1.0575300e-02
 -9.8457641e-04
  3.5331517e-01
 -9.6409749e-03
 -2.9725919e-03
 -8.3126512e-04
  1.1156690e+00
  1.0470071e+00
 -1.2998267e-02
  1.4738471e-03
  2.3195939e-04
  8.8913431e-03
  7.1082488e-03
  4.1534007e-04
 -5.6895083e-03
  5.1154010e-03
  4.9933554e-03
  1.1608892e-02
  6.6992110e-03
 -5.9751715e-03
  6.7140785e-04
  3.3829042e-03
  1.0802369e-03
 -1.1521017e-02
 -8.4919087e-04
 -8.4005768e-04
  1.6469477e-03
 -8.6151436e-04
 -3.7562519e-03
 -2.0544231e-01
 -3.2729452e-04
 -1.3488040e-03
  7.4125745e-04
 -1.4826386e-03
 -1.2848079e-03
  1.1822496e-03
  5.8002174e-03
  2.8558816e-03
  2.9999597e-03
  4.8494173e-04
 -8.6628636e-03
  1.6094724e-03
  3.3278030e-03
 -3.8991680e-03
  3.5050148e-01
  8.8484440e-04
  6.8348516e-03
  2.9060512e-03
  2.7705053e-02
  4.6174843e-03
 -6.8967795e-04
 -2.3551122e-03
 -1.4349862e-03
 -4.3745646e-03
  2.3578899e-03
 -2.0342891e-03
  2.6159519e-03
 -8.7842258e-04
  3.0355833e-03
 -5.9899287e-03
 -3.1676423e-03
  2.8052935e-03
  8.8247778e-03
  1.6320640e-03
 -3.7982797e-03
 -2.5678012e-03
 -1.0377341e-03
 -3.0241574e-03
 -1.8542780e-03
 -4.0650242e-03
  6.5344437e-03
 -2.7319749e-03
 -1.4299549e-02
  6.4537680e-04
  1.2182661e-03
 -3.8153348e-03
 -6.2596607e-03
  3.6788762e-03
  5.7765371e-03
  6.2175612e-03
 -4.5029772e-03
  2.2296777e-03
 -1.8872310e-03
  6.9380263e-03
 -6.9244829e-04
 -2.4716803e-03
  2.4114698e-03
 -9.9929059e-03
  1.0936296e-03
  3.7157557e-03
  1.1843751e-03
  4.9299905e-03
 -1.7001923e-03
  1.5612590e-03
 -2.9024542e-03
  9.3653746e-04
 -1.3927273e-03
  2.1400328e-03
 -4.9828938e-03
  3.7579308e-04
  7.2134081e-03
 -1.9356221e-04
  5.4074973e-03
  3.3012701e-03
  1.5157615e-03
 -5.6880491e-04
 -2.9247657e-03
  2.0773951e-03
  1.3194314e-03
  6.9491733e-05
  8.7551670e-03
 -1.7419247e-03
 -2.2365885e-04
 -1.0770208e-03
 -4.3362941e-04
  1.8853318e-03
 -1.8081435e-03
 -1.0386503e-01
 -3.1582918e-03
  1.0577181e-03
 -1.2636206e-03
 -3.7939488e-03
 -9.3789212e-04
  1.3574408e-03
  9.4531355e-03
 -2.4821546e-03
  5.9198220e-03
 -5.5292631e-03
 -2.2117766e-03
  1.8882577e-03
  3.3075509e-03
  2.7380459e-04
  5.2029302e-04
 -4.3636875e-04
 -7.6020402e-03
  1.6657590e-03
  4.5704434e-04
 -2.1589182e-03
 -1.6046246e-03
  9.4895030e-04
 -6.8300366e-03
 -2.2001616e-03
 -4.7454969e-03
  1.6314972e-03
 -1.3615431e-02
  3.0875334e-03
 -1.7388799e-03
  8.0940116e-04
 -3.6131353e-03
  6.3728044e-07
 -1.8901040e-03
  1.4592992e-02
 -1.6754562e-04
 -5.4618823e-03
  4.7389860e-03
  8.6280640e-04
 -8.6635363e-04
  2.2223589e-03
 -3.0030741e-03
 -4.3334119e-05
 -2.2326324e-03
 -8.2649745e-04
 -3.0624447e-03
  5.8518752e-04
  9.0551656e-03
  1.3300710e-03
  2.3466679e-03
  6.1516096e-03
 -2.3653493e-03
  1.4650477e+00
 -1.3420106e-01
 -8.3173066e-01
 -3.2921469e+00
 -1.0630757e+00
 -8.8780695e-01
  9.6818453e-01
 -9.0488732e-01
  1.3340590e+00
  2.7202747e-03
  6.2959880e-01
 -9.7243273e-01
 -3.7154940e-01
 -7.1284437e-01
 -1.2206247e+00
  7.5492628e-02
  5.4124796e-01
 -2.7264461e-02
 -5.8158267e-02
 -1.6392319e-03
  6.3930798e-01
  7.2460711e-01
  9.2283636e-02
 -5.7854392e-02
 -1.0880995e-01
 -1.6467683e-01
 -6.0503286e-01
 -7.2504151e-01
  1.7057885e+00
  5.1103896e-01
 -1.7744131e-02
  1.7858577e-01
  5.8955816e-03
  1.3568045e-01
  5.1660836e-01
  1.6896720e-01
  1.6435831e-03
  5.2412190e-03
  1.7915840e-03
  1.8938291e-01
 -9.4073685e-03
 -2.8772429e-01
 -1.0352058e-03
 -2.8412676e-01
 -5.1335102e-01
  9.1577349e-03
  1.7337086e-02
  3.7618607e-01
  1.7956622e-01
 -5.2121719e-03
  1.1942973e-03
 -1.7289668e-03
 -4.2034820e-02
 -4.5524174e-04
 -7.8090531e-04
  1.1310785e-01
 -1.3254882e-03
 -1.4476338e-04
 -1.0068436e-03
 -1.9693018e-01
 -1.2825355e-02
 -8.5282512e-03
 -1.3431513e-02
 -5.0772023e-03
  1.5845162e-05
  1.8234676e-03
 -1.4564408e-02
 -3.3647129e-03
  2.3653435e-03
 -3.7230638e-01
 -2.7408693e-02
  3.5392856e-03
  8.3580250e-03
  1.7313208e-01
  7.1696262e-03
 -1.0054285e-04
  1.2172594e-03
 -2.2776460e-03
  1.8314278e-03
  1.2590627e-03
  1.9619476e-04
 -1.2105805e-03
  4.0009976e-03
 -9.3508683e-02
 -1.9516506e-03
 -1.2517163e+00
 -4.0270630e-01
 -5.9876282e-02
 -1.2530037e+00
 -5.6117839e-01
 -7.5165462e-01
  4.1318047e-03
  3.6912959e-03
  2.6936081e-01
  4.1221142e-02
  2.4138063e-02
  2.7704163e-02
 -6.2192433e-02
  2.2664455e-01
  3.0125835e-04
  9.1454631e-04
 -5.9305924e-01
  4.8812363e-01
 -2.1844758e-03
  5.4411221e-02
 -1.1033242e-03
 -2.7523714e-01
  3.0458716e-01
  3.8056265e-04
  8.9475232e-01
 -1.0439001e-03
  6.4192951e-02
  3.7434441e-01
  2.1698488e-01
 -3.1522676e-02
 -9.6124560e-02
 -4.8673604e-02
  1.5819187e-01
 -4.4813469e-02
  1.6866078e-03
 -2.9699593e-03
  1.0959885e-04
 -3.0154186e-01
  1.1478472e-03
  2.6273965e-03
  1.8580344e-03
  7.2139391e-04
  1.4217350e+00
  3.6586919e+00
  7.3499668e-01
  2.5220558e-01
  1.6041197e+00
  3.0556135e+00
  9.9562283e-04
  1.0418630e-02
  7.1910592e-03
  3.8803466e-02
  3.0156514e-02
 -8.1472147e-01
 -3.8653806e-01
 -2.4483669e-01
 -4.5576793e-01
 -9.0251857e-04
  2.2268310e-02
 -6.3978708e-03
  1.9192692e-02
 -2.4692008e-01
 -1.3182632e+00
 -9.4126242e-01
 -2.0212596e-02
 -1.6406932e-03
  1.7998191e-03
  1.5774055e-04
 -9.3321010e-05
  7.1311712e-02
 -6.4376402e-01
  1.6812028e-02
  2.9079017e-01
  1.6208236e+00
  9.8296657e-02
 -3.1337705e-01
  3.8334199e-03
 -8.7050265e-03
  1.0242875e-03
 -2.4812685e-03
  1.5604727e-03
  4.4276752e-03
  2.5948837e-02
 -1.8475939e-01
  1.0783178e-02
  9.7173905e-01
  3.9464895e-02
 -5.2710235e-01
 -1.9257493e-01
 -9.9730408e-01
 -2.4102060e-03
  1.7952788e-01
  5.0966305e-01
  3.3805601e-02
 -6.4061605e-04
 -3.1971766e-03
 -4.5064238e-01
 -6.9530100e-01
 -1.1126207e+00
 -3.0824791e-03
 -8.4296934e-02
  1.2678641e+00
 -9.8572266e-01
 -1.3906017e-01
  1.4310137e+00
 -1.9597761e-01
 -2.4828177e-02
  3.2322530e-02
  1.7297035e-01
 -3.5825688e-02
 -1.4488785e+00
  4.7839969e-01
  1.1017632e-01
  9.9765405e-02
 -5.6052689e-02
 -7.2769664e-02
  1.3431516e-01
  2.1873747e-03
  4.6873710e-04
  1.3380663e-03
  1.2816732e-03
  1.5056588e-02
 -6.2551439e-02
  5.6858337e-04
  1.3509165e-02
 -4.4777272e-03
  3.5624537e-03
 -1.4436579e-02
 -6.8372423e-03
 -5.7546492e-03
  5.1212646e-03
  4.1853040e-03
  2.5683481e-03
  1.4605718e-03
  5.7211187e-04
 -8.3617792e-03
 -7.2961039e-04
  8.5632298e-03
 -2.1200636e-03
 -3.1633161e-03
  3.1164326e-03
 -3.9680409e-03
  2.4076919e-03
  8.8413339e-04
  1.0249538e-03
 -2.7675056e-04
  2.7874568e-03
 -9.9437917e-04
  6.4259087e-04
 -1.7254916e-03
  1.3148219e-03
 -1.4691730e-02
 -1.0534853e-03
  4.5195650e-04
  7.5287814e-04
  3.2198348e-03
  2.3916336e-03
  1.0445040e-02
 -4.6175616e-03
  1.7819999e-02
 -3.0711710e-03
 -3.1908706e-04
  1.2930580e-03
 -4.7681379e-04
  6.1803404e-04
 -1.8688535e-03
 -3.2632373e-04
 -2.4215812e-03
 -5.2487929e-03
 -2.8578823e-03
  1.7584591e-03
  5.7123736e-03
  5.4768560e-04
  3.3029832e-03
  4.0880763e-03
  7.4312609e-04
 -1.3684101e-03
 -7.6083955e-04
 -2.5658007e-03
 -5.8570527e-03
  6.5231030e-03
  1.5189106e-03
  4.9497648e-03
 -7.3053187e-04
 -1.2896860e-04
  1.0989213e-04
 -1.9191540e-04
 -2.8097152e-03
 -4.1614426e-03
  5.7322518e-03
  1.9207742e-03
  2.0952572e-03
  1.1782356e-03
 -7.3805562e-04
  1.0074348e-03
  1.0773994e-02
 -1.4230602e-03
  1.6746365e-03
 -2.4073350e-03
  4.3012609e-04
 -2.8172421e-04
  4.1186078e-03
 -2.3684551e-03
 -2.0841158e-05
  8.9536305e-04
  1.4184742e-03
  3.5267642e-03
  4.0348750e-03
  1.8031659e-03
  2.5480956e-01
 -1.2119333e+00
 -1.6866100e-01
  2.4495412e-01
  3.9108949e+00
  6.8475539e-03
  2.3737721e+00
  6.9080824e-03
  3.8493643e-04
  6.8162179e-01
 -2.6159665e-01
 -2.3980432e-03
  2.8417444e-02
  3.5790542e-01
  1.1258782e-01
 -3.7440225e-01
  2.4998000e+00
  1.2192585e-02
 -6.7446451e-04
  8.3342381e-03
  2.8922463e-02
  1.1859463e+00
  1.1985296e+00
  2.1065960e+00
  2.6320096e-02
 -1.0202099e+00
  5.8602963e-02
  5.4751170e-01
  3.6049479e-01
 -8.8057525e-02
  2.2019904e+00
 -7.7811725e-02
 -9.1781378e-01
 -9.0942846e-04
  2.3002963e-01
  1.6916248e-01
  2.1911155e-01
 -6.6404736e-01
  1.3137259e-02
  1.3412321e-01
 -1.2195081e-01
 -4.5727387e-02
 -2.1196354e-02
  4.1457541e-02
 -1.6349516e+00
  7.3598564e-01
 -7.9325068e-01
  2.0467398e-01
  1.7730494e-01
  6.4576352e-01
  2.7505364e-04
  1.0611169e-02
  6.7097761e-02
 -1.0672256e-02
 -7.3705435e-02
 -1.7202108e-01
 -2.9632735e-01
 -2.8889087e-01
 -5.8002893e-02
  2.7586260e-01
 -2.2052126e-01
 -2.7722177e-01
 -1.6415858e-01
 -9.8586094e-04
 -3.1944123e-01
 -1.9357242e-03
  1.6257158e-01
  4.8231343e-03
 -5.0638551e-03
 -3.0721686e-04
  1.4068236e-02
  1.0259835e-01
 -6.2497444e-03
 -4.2384624e-01
 -3.3797815e-01
  1.5845849e-01
 -1.0220818e-01
  2.4755339e-03
  1.7224979e-02
  9.8818250e-04
  5.9058387e-03
  4.7504324e-02
 -3.9595552e-03
  7.5186372e-02
 -6.0456479e-03
 -3.6260486e-01
  4.8042219e-03
  2.1940747e-03
  1.5991685e-01
  7.2121315e-02
  9.6178772e-03
 -4.1129589e-03
  1.3515138e-03
 -8.5124135e-04
 -6.4607017e-04
 -7.8857038e-04
 -4.3394002e-03
 -1.8284655e-03
 -1.7401641e-02
 -8.0296174e-03
  4.2574904e-03
  1.0195368e-03
 -5.3714975e-03
 -1.4740155e-03
 -1.5336362e+00
  1.6895970e-03
  1.2711293e-01
  2.4257263e-03
 -2.6857809e-03
  1.4928989e-03
  1.0269419e-03
  2.1424564e-03
  2.2346736e-03
 -2.3073675e-03
  3.5287431e-03
  3.4430854e-03
 -2.1185751e+00
  9.0578693e-04
 -3.1915510e-01
  3.1062014e-02
 -1.9143301e+00
  5.7124422e-04
 -7.5303512e-03
  2.9268090e-03
  1.4447751e-02
  2.3815732e-03
 -1.1405684e-03
 -1.3991989e-01
  1.2941942e+00
 -1.3191624e+00
  1.5300143e+00
  8.0395617e-02
 -4.2361255e+00
  1.0393672e-02
  1.7274860e-02
 -3.4702823e-01
 -4.0526304e-01
  3.3808686e-02
 -2.8353503e-03
  1.0379376e+00
 -1.1107606e-01
 -3.8444580e-04
 -3.7566796e-01
 -4.4393888e-01
 -1.2009244e-01
  2.5953313e-03
  3.1440189e-01
  7.0147794e-01
  1.2036752e-02
 -9.6861058e-01
 -2.6324317e-02
  4.3836713e-01
 -1.4888910e-02
  3.5259798e-02
  8.3285514e-03
 -9.5617515e-01
 -3.0539635e-01
 -3.1708003e-04
 -4.9057867e-02
  2.5994634e-02
 -1.2064829e-01
  1.1915379e-01
 -3.6116404e-04
  2.3266637e-01
 -1.0608723e-01
  1.3955815e-01
  2.0170618e-02
 -4.0143046e-01
 -1.9558468e-03
  1.3460104e-01
 -5.6829309e-04
 -7.5415880e-03
 -1.0355903e-03
 -2.6716301e-01
 -1.1209560e-01
 -2.8017960e-03
  2.4688564e-04
  1.4738989e-03
 -1.8952332e-03
 -8.4460014e-04
  2.5363043e-03
 -9.0124663e-03
  7.9547994e-05
  6.0996733e-04
  1.5435315e-03
  3.4288954e-02
  1.2697045e-03
  2.6082059e-03
 -2.2949770e-03
  2.7710345e-04
 -2.5012568e-01
  2.6722459e-04
  1.6729124e-02
  1.6358411e-03
  5.2560889e-04
 -7.0304441e-04
  4.9766636e-01
  1.0018357e-03
 -9.9454762e-04
 -5.2319719e-03
 -6.1573740e-03
  1.0553251e-02
 -5.5280632e-01
 -1.1469205e-04
 -2.7852843e-03
 -2.0434607e-03
  9.7591814e-04
  2.9853566e-03
  8.0294209e-04
  2.4014560e-04
 -4.8926420e-04
 -3.1066534e-01
 -6.0632062e-01
 -1.2154802e-02
 -9.7888730e-02
 -2.8802626e-02
 -1.7572752e-01
 -1.6595963e-03
  1.2305767e-02
  2.1706427e-02
  1.8814009e-01
  1.4786345e-02
  1.4965500e-03
 -6.1021792e-03
  1.1260611e-03
 -4.2930362e-03
  1.8336687e-03
 -4.2820638e-01
  1.2198506e-03
  1.4637224e-02
  4.3989406e-03
  6.2518887e-02
 -1.7167400e-01
 -1.6640753e-03
  6.4377865e-04
  4.8556589e-03
 -2.7856084e-03
 -7.0943828e-03
  4.7611069e-02
 -9.5543079e-03
 -1.1582637e-03
 -1.3784232e-03
  1.2632072e-03
 -2.1245384e-04
  9.2115747e-03
 -9.1587170e-04
 -1.4712064e-03
  7.3091540e-04
 -1.6357829e-03
 -2.4845214e-03
 -2.1625638e-03
 -1.0041342e-02
 -2.0502031e-02
 -1.9180633e+00
  1.1003940e+00
  6.4754863e-03
  2.2043447e+00
 -1.7039296e-01
 -1.4339250e+00
  2.0832653e-01
  1.9585788e+00
  4.7800887e-01
 -5.9373751e-03
  3.0831027e-01
  4.2062094e-03
 -4.0085018e-01
 -7.0671611e-03
  5.0844514e-01
  6.6234243e-01
 -1.0729469e-03
  1.0508887e-03
  8.8430667e-01
 -7.4905809e-04
 -2.2173977e+00
 -1.7271792e+00
 -3.7089843e-04
  1.8148641e-03
  7.2411098e-02
 -3.6214066e-01
  1.5315083e-01
  1.6283756e+00
 -6.8791729e-01
 -7.0563578e-03
  2.6498219e-01
  2.9359552e-01
 -3.6008735e-04
 -5.2082056e-01
  1.3373141e-02
 -6.0258424e-01
  8.3741564e-03
 -1.5601993e-01
  2.8316199e-03
 -1.1064854e-03
 -4.3895221e-03
  3.0366131e-03
  1.7686440e-02
  1.4043655e-03
  1.3906796e-03
  1.1467765e-02
 -7.2647543e-03
 -7.5333001e-04
  7.9208135e-04
 -1.6205306e-03
  1.3363969e-03
 -1.9773417e-03
 -1.9745405e-03
 -7.9946760e-03
  3.4359466e-02
  1.1021974e-03
  3.3820891e-03
  2.7727117e-03
 -2.9436983e-03
  1.5977840e-03
  3.1576392e-03
 -2.9627406e-03
  3.0002831e-03
 -6.3581340e-04
  1.4693613e+00
 -3.1415052e-03
 -1.4372193e-03
  5.5897241e-03
 -1.0561016e-03
 -2.1309559e-03
 -1.3826244e-03
  1.8421060e-03
 -7.5332252e-03
 -3.7423226e-03
 -2.3156528e-03
 -2.2828472e-03
  7.4085366e-04
 -1.3170093e+00
  1.1674475e-03
  3.3166518e-05
 -2.7380593e-04
  2.7438875e-03
 -3.7372604e-04
 -1.9239129e-01
  1.5972992e+00
 -1.1660239e+00
 -1.9481344e+00
 -1.0253167e+00
  1.0470451e+00
  2.0150349e+00
 -4.5651231e-02
  6.5035908e-04
  6.4972734e-01
 -2.6110937e-03
 -1.1104290e-02
  1.5074208e+00
  1.4030753e-01
  9.3635648e-01
  1.2115366e+00
  3.4316018e-01
  4.0960205e-01
 -7.8167057e-01
  1.4327253e-01
 -1.0452846e+00
 -3.4138503e+00
 -3.6600590e-02
 -1.0123925e+00
 -8.2466102e-01
  1.4458095e-01
 -1.9355282e-01
  3.4897849e-01
  4.0111029e-01
 -5.2065301e-01
  3.1865296e-01
  4.2370898e-01
 -1.0671305e-02
  3.2131633e-01
 -1.7700670e+00
 -4.0037915e-01
 -1.1278120e+00
 -7.8285649e-02
 -1.5048543e-04
  1.3354260e-03
  1.3205202e-03
 -2.6249844e-01
  2.1977304e-03
 -7.7465274e-03
  3.4588173e-03
 -1.3744611e-03
  6.2811305e-04
  1.1392099e-02
  6.6360491e-03
 -1.2546504e-03
 -2.1063723e-03
 -2.1609918e-03
  5.3573060e-03
 -1.2990610e-03
  1.8494194e-03
  5.9755039e-03
  5.0508692e-03
 -7.1402858e-03
  7.5139205e-06
  3.7796551e-03
 -2.9221044e-03
 -5.0650607e-03
 -7.4159033e-03
  3.4537319e-05
  2.2067341e-03
 -1.3182899e-04
 -1.5848009e-03
 -1.2971009e-03
  5.7444214e-03
 -2.4225174e-03
  1.4261289e-04
 -4.4468311e-03
  9.7494078e-04
  5.2849888e-03
 -8.8506332e-04
 -2.0625531e-03
  1.1916881e-03
  1.0130147e-03
  2.5495366e-04
 -4.1380394e-03
  4.9015302e-03
  3.2117974e-03
  4.8388615e-03
 -4.6246154e-03
 -2.9367536e-01
  7.8967655e-01
 -7.5310200e-01
  3.5498885e-03
 -1.7135789e-01
  2.0752635e+00
  1.1742697e+00
 -8.1404820e-03
 -1.7527336e-01
 -6.2807789e-03
 -1.4385363e-05
 -5.7448843e-03
  3.9536697e-03
 -2.1946901e-01
  1.0024520e-02
  5.9450825e-04
 -6.7874688e-01
  5.2942773e-03
 -3.9844282e-02
  2.1365032e-02
 -7.0770675e-01
  1.4206040e+00
  1.8890923e-01
 -7.7925211e-01
 -1.6233892e-03
 -8.1430683e-03
 -2.0320655e-01
  8.5742635e-01
 -3.3821866e-01
  9.8878831e-01
 -2.0289141e-01
 -6.2534995e-02
 -3.5264216e-02
  2.5601700e-01
 -4.1142896e-02
 -5.3881719e-03
  5.4257778e-03
 -3.3151626e-03
 -5.4284401e-04
 -9.2907570e-04
 -6.4387270e-03
  1.0941135e-02
 -9.3211969e-03
 -2.0668310e-01
 -3.6337078e-05
 -8.3176149e-03
  1.1777998e-04
 -1.3433006e-03
 -9.2333212e-04
  3.7153701e-03
  4.5635868e-03
  9.9010358e-04
  4.3653187e-04
  1.0271363e-02
 -2.0381173e-03
 -2.2886239e-02
 -5.3733395e-04
  1.1405261e-03
 -1.2386270e-03
  1.7775552e-02
 -1.4956511e-03
  2.0729133e-03
  5.3322711e-03
  1.0803463e-03
 -7.5384301e-01
 -1.6223912e-01
 -6.3030766e-03
 -5.0070905e-03
 -2.6371828e-03
  2.1885416e-02
  4.3887221e-03
  5.9516961e-04
 -2.4891116e-03
 -8.8903531e-03
 -2.2720981e-03
 -1.4655613e-03
 -8.7019481e-04
  1.0277921e-03
 -3.3468015e-03
  5.4645699e-01
  5.0836247e-03
  5.9181238e-03
  4.4850511e-03
  2.8942882e-03
  2.0941197e-05
 -5.0525861e-03
  3.2385034e-04
  6.0450663e-03
  3.0193611e-03
 -5.2188621e-03
  3.9682155e-03
 -8.9916040e-04
 -1.0590173e-02
  5.3019915e-04
  3.5840222e-03
 -2.1769057e-03
  8.7139185e-04
  2.0310597e-03
  2.0345198e-03
 -2.1241636e-04
  8.1188645e-04
  2.8436776e-04
  8.6325053e-03
  7.6254702e-04
 -5.3467015e-03
  6.4253190e-04
  2.6114769e-03
 -3.4191925e-03
 -8.7860050e-03
  9.5594377e-04
  4.2465529e-03
 -2.4359245e-03
 -1.0275126e-02
 -1.4188926e-03
  5.4953701e-04
  2.9297383e-03
 -1.7719506e-03
  3.0099717e-03
 -4.1149771e-03
 -2.0322783e-04
 -8.5824495e-04
 -9.1117871e-04
  5.0248140e-03
  1.7486850e-03
  4.9753776e-03
 -2.7172540e-03
  7.1275242e-02
 -1.0341896e+00
 -2.7706604e-03
  4.2795084e-02
  8.5588181e-01
  4.9447450e-01
  1.1513465e-01
 -3.5678896e-03
  6.2944853e-01
  3.1372402e-03
 -6.1645424e-01
 -3.2571948e-01
 -5.5507183e-01
  2.9080236e+00
 -4.9341634e-01
 -5.6108542e-02
  7.9066969e-02
 -5.4188240e-01
 -5.0433421e-01
  1.9451778e-04
 -3.6917374e-01
 -4.7736974e-03
 -2.0545710e-02
  4.3332845e-01
  3.4016881e-02
 -6.9765854e-03
  3.5872522e-03
 -1.9966628e-01
  1.5940693e-01
 -5.5537087e-01
 -5.8572023e-04
 -1.5266714e-01
  8.3613902e-04
  1.5117480e-01
  1.0485383e+00
  1.0281929e-01
 -5.1941919e-01
  8.1557846e-03
  6.5830129e-01
  2.4529643e-01
 -1.1709523e-02
 -3.3725917e-01
 -9.3238771e-02
 -2.4610066e+00
  4.2982990e-01
 -3.3195288e+00
  2.2838769e+00
 -6.9868321e+00
 -3.7423961e+00
 -4.2283861e-03
 -1.1893377e-03
  1.9476486e-02
  5.9268844e-01
  2.2581571e-03
 -1.2839454e-03
  3.6460459e-01
  2.6239195e-01
 -1.0456232e-03
  1.5144476e-01
  5.5045074e-01
  7.2239511e-02
  7.6268494e-02
  1.0173206e-04
 -6.2327188e-01
  2.0568109e+00
  1.1923100e+00
 -1.4680374e-03
  7.1324229e-01
  1.8759985e-01
  2.4741364e+00
 -2.0506946e-02
 -1.4824626e-02
  5.3281867e-04
  1.4239214e-01
 -1.2867835e-01
 -7.5694531e-02
  3.9070538e-01
  4.1652960e-03
 -1.1795713e-02
 -1.1453686e-03
  4.9262578e-03
 -4.9967039e-03
 -3.1257230e-03
  4.3991017e-03
  1.4985403e-02
 -4.9372677e-02
  2.1516819e-01
 -1.0592867e-04
  6.5490329e-01
  3.5491191e-02
  4.3798926e-01
  2.7335405e-03
 -1.0225791e-02
 -2.8720959e-03
 -2.0460895e-01
 -2.1695967e-03
 -9.3310879e-04
  6.1877710e-01
  2.2506942e-03
  7.8662662e-03
 -4.5209262e-03
 -3.4579806e-04
  1.3837210e-03
 -1.1040133e-03
 -4.4756420e-03
 -2.9892204e-03
  6.4296718e-03
  1.9082251e-01
  1.1870759e-03
  1.1611081e-02
  3.4338839e-02
 -1.5014689e-02
 -3.8683791e-02
 -2.8819295e-03
 -1.1219539e-03
  3.5949161e-03
  3.0057088e-01
  2.8779390e-03
  2.1220965e-03
  8.1315422e-03
  5.3716521e-03
  4.4111223e-03
  4.1605940e-04
 -4.8308661e-03
  7.6615141e-04
 -1.7776987e-02
 -2.1345839e-01
 -2.4837607e-01
  1.4024857e+00
 -8.9308619e-01
  2.0049384e+00
  1.7614871e-01
  5.8612251e-01
  3.1446418e-01
 -1.8684032e+00
  6.0219914e-01
 -4.2907677e+00
 -1.5952288e+00
 -1.5070004e+00
 -4.1197318e-01
 -1.2246494e+00
 -1.5421789e+00
  1.1711317e+00
  1.7734261e-01
  8.2005042e-01
 -7.7889401e-01
 -2.0106292e+00
  3.9196169e-01
  1.3639988e+00
  2.6142332e-01
  1.4867638e-02
 -2.4611291e-03
  1.4498882e+00
  1.6056617e+00
 -1.1462971e+00
  1.4156836e-01
 -1.0068176e+00
 -5.4806750e-03
  2.7176178e-01
  3.8358308e-03
  2.1644509e+00
 -2.3772590e+00
  2.5789151e-01
 -1.5101461e-02
  5.4753000e-01
  8.2520854e-01
  4.0193820e-01
 -7.1222579e-01
 -5.8236712e-01
  1.1447812e+00
  9.6008021e-01
  4.2837134e-01
 -1.4438260e-01
  1.0314125e+00
  3.0201025e+00
 -4.7754824e-02
 -1.5319794e+00
  4.8617315e-01
 -8.9892417e-01
  5.1433486e-01
  1.9311270e+00
 -9.4631150e-02
 -1.0161610e+00
  7.8397289e-02
 -8.8102061e-01
  7.1771932e-01
 -4.1483316e-01
 -2.3146169e+00
 -6.7715299e-01
 -8.0100960e-01
 -8.2258964e-01
  1.8810421e+00
  1.1470456e+00
  7.6096660e-01
  3.8632700e-01
  2.3873425e+00
 -2.0415041e-01
  5.5918354e-01
  6.3669503e-01
  1.2589692e-01
  1.2538318e-01
 -1.2937356e-03
  4.7717449e-01
 -4.1283207e+00
 -4.5310965e-01
  7.0981348e-01
  2.6216021e-01
  7.6965445e-01
  1.1790194e-02
  1.6481971e-02
  2.2941084e+00
  1.1454041e+00
 -1.8885636e-01
 -1.5649759e+00
  2.5899249e-01
  8.8528770e-01
  4.2372856e-01
 -1.3988507e-01
  1.0205039e+00
 -3.5337925e-01
  9.9007285e-01
  2.6292095e-01
 -5.9116535e-02
  1.1404074e+00
  5.4167640e-01
 -2.7134457e-01
 -2.1722622e+00
 -8.2187879e-01
 -1.4960473e+00
 -6.4819980e-01
 -1.4484005e+00
  4.4065484e-01
 -5.1161438e-01
 -4.7910693e-01
 -6.7777483e-04
 -2.9719024e+00
 -7.8150803e-01
  3.2795022e+00
 -1.4927547e+00
  7.1413465e-02
  5.6605067e-02
 -3.3850789e+00
 -2.8159028e-01
  4.6065876e-01
 -1.7134665e+00
  1.6187810e+00
 -8.4469348e-01
  7.0686829e-01
 -2.5869200e+00
  7.0628434e-01
  5.7092696e-01
  3.1326118e+00
  2.1006796e-01
 -1.5949728e+00
 -1.7145112e-01
 -9.3027991e-01
 -1.1589167e+00
 -8.6546284e-01
  1.2780378e+00
 -2.6452053e+00
  6.1330229e-01
  3.0149693e+00
  3.6748538e+00
 -1.0140243e+00
  1.6909357e+00
  8.4524953e-01
  9.1636014e-01
  1.3243144e+00
 -1.1834203e+00
 -1.7166975e+00
 -1.0589576e+00
 -1.5912751e+00
 -4.5152202e-01
  1.9901546e+00
  1.1717738e+00
 -2.6077276e-01
 -9.1573352e-01
  1.7127989e-02
  3.8327340e-02
  1.4400645e+00
  1.4147761e+00
  6.1907625e-01
  5.5378729e-01
  2.1247905e-01
  8.3111894e-01
  3.2565835e-01
  3.4288349e+00
 -1.6738614e+00
  3.3860962e+00
  5.7873051e-03
  8.3113748e-01
  3.3392510e+00
 -7.1639585e-01
  4.9190497e-01
  8.3509891e-04
  3.6557059e+00
 -3.5592394e+00
 -4.1280568e-01
  1.1845727e+00
 -2.0300093e+00
 -2.4901569e+00
 -2.0837446e-01
  2.2087700e+00
  1.9935497e+00
 -2.4507783e-01
 -1.6645023e+00
  1.2158593e-02
  1.0648632e+00
  1.4290537e-01
 -2.0224204e+00
  2.4199672e-01
 -9.7189975e-01
 -5.3529298e-01
  3.1581223e+00
  1.7090987e+00
  5.1894527e-02
  1.5009041e+00
  2.3692625e+00
  2.5507498e-01
 -3.2742730e-01
 -2.3610766e+00
  1.5006616e-03
  1.0371105e-03
  7.8933889e-01
 -1.8122144e-01
  1.2218083e+00
  1.2715679e-01
  6.8645406e-01
 -1.3117073e+00
  1.1949451e+00
  4.5723200e-01
  1.5328498e+00
 -6.7918146e-01
  6.9856815e-02
 -1.2042004e+00
 -7.4389422e-01
  6.4471012e-01
 -1.7792069e+00
 -9.2659600e-02
 -4.8866242e-01
  6.4492333e-01
  9.6708477e-02
 -6.8787271e-01
  3.6299298e+00
 -7.0253938e-01
  1.1062173e+00
 -8.5282391e-01
  6.2710619e-01
 -1.8023505e+00
  1.7337515e+00
  5.7027417e-01
 -2.8911586e+00
 -1.5229578e+00
 -2.0239043e+00
  1.5641154e-01
 -2.4817154e+00
 -1.5045925e+00
  1.7053780e-01
 -1.8942326e+00
 -1.0067182e+00
 -8.3790040e-03
 -1.4184141e+00
  9.9611765e-01
  3.9542415e+00
 -7.0949900e-01
 -5.3764904e-01
  2.1854018e-01
 -1.5258493e+00
 -1.7057296e+00
 -1.3578120e+00
 -4.0809327e-01
 -3.9753225e-01
 -1.6418652e-01
  1.0603366e-02
  5.1537484e-01
 -3.6117327e-01
 -2.8241786e-01
 -1.2277299e-01
  1.1989697e-03
 -1.3380888e-01
  1.1952962e+00
  2.0784946e-01
  3.1580657e-01
  1.1791540e+00
 -1.5854867e+00
  2.8995928e-01
 -9.4935977e-01
  7.6737571e-01
 -2.7408526e+00
  3.1799884e+00
  6.2511975e-01
  2.4657683e+00
 -3.2592587e+00
  2.9706979e-01
 -1.5923246e+00
 -4.2539969e-01
  9.4763821e-01
 -4.6490316e+00
  2.7714932e+00
  3.4186870e-02
  1.5068390e+00
 -1.8592705e+00
  1.7593244e+00
  3.1943110e-01
  3.0047629e+00
  4.8456502e+00
  1.9807552e+00
 -1.9566046e+00
  1.0752400e-01
  1.0517547e+00
 -1.1275042e-02
  3.7633054e+00
 -5.6373396e+00
 -6.6226321e-01
  5.7052959e-05
  4.0662453e-01
 -7.4826902e-01
 -2.1265950e+00
 -3.0262096e+00
 -6.3085942e+00
  3.0362735e+00
  3.2960801e+00
 -5.8978021e-01
 -3.7188447e-01
 -1.6866654e+00
 -2.9588589e-01
  6.5584612e-01
  7.0778199e-02
  1.9922455e-01
  8.1707644e-01
 -9.7686970e-01
  1.4008313e+00
 -1.9995024e+00
 -6.5560490e-03
 -9.9143142e-01
  6.9462138e-01
  4.6011952e-01
  1.6608698e+00
 -6.8032700e-01
  2.9471707e+00
 -8.1947303e-01
  6.9256377e-01
 -2.2269230e+00
  6.0826969e-01
  8.2129920e-01
 -4.2551526e-01
 -1.2437863e+00
 -2.3687758e-01
  1.2762330e+00
  8.9549340e-02
  8.1598717e-01
  1.9538812e-01
  2.1929398e-01
  9.0980327e-01
  7.0006609e-01
  2.5706637e+00
 -1.3252878e+00
 -3.3599713e+00
  2.2029424e+00
 -7.6069278e-01
  9.9404192e-01
 -1.4844773e+00
  6.8617746e-02
 -1.8353367e+00
 -6.6007552e+00
  4.3108320e-01
  1.0242484e+00
  8.3469135e-01
  2.2271396e-01
 -3.7468746e+00
 -1.0151099e-02
 -8.3742690e-01
 -6.3993716e-01
 -1.6591296e+00
  3.9671040e-01
  8.3517826e-01
  2.0161915e-01
 -1.1610599e+00
  1.3868620e+00
 -1.2165317e-01
 -4.6621542e+00
 -3.5357043e-01
 -2.8143521e-02
  1.8495923e+00
 -1.0781356e+00
 -1.1513232e+00
  9.1574126e-01
  4.2211151e-01
 -5.0970018e-01
 -7.7213478e-01
  4.7827101e-01
  9.0522945e-01
 -4.5671148e+00
 -2.1708353e+00
  3.4785728e+00
 -3.9107003e+00
 -5.3908008e-01
 -1.0955939e+00
  3.6351454e+00
  1.3878449e+00
  1.7528405e+00
  2.5723124e-01
 -4.9360145e-02
 -6.2331992e-01
 -1.0176932e+00
 -1.8025144e+00
 -2.7895756e+00
 -1.2387655e+00
  3.0230173e-01
  4.3022151e+00
  8.1430858e-01
 -2.3258038e+00
  2.1487436e+00
 -2.8590639e+00
 -3.1276307e+00
  3.0121515e+00
  1.0765575e+00
 -6.5076005e-01
 -1.6036418e-01
  1.8087727e-01
  8.2680464e-01
  4.2221272e-01
  3.7775240e+00
 -8.5722290e-02
  3.3948043e-01
 -5.4051501e-01
 -2.3185921e-01
 -1.0051855e+00
 -5.9364182e-01
 -2.5269041e+00
  1.8384285e+00
  6.8688715e-01
 -1.8207221e-01
 -1.1389619e+00
 -5.4428712e-02
 -1.7455349e+00
 -3.3442568e-02
  6.3892531e-01
  2.9917133e-01
  2.2357657e+00
 -7.3618269e-01
 -1.6396346e+00
  3.8308424e-03
  5.5496035e+00
 -2.6896665e+00
  1.6273839e+00
 -8.7155408e-01
 -8.9142978e-02
 -4.1786024e-01
 -5.3226727e-01
  1.9327520e-01
 -1.7086308e+00
 -6.5043885e-01
 -1.3898557e+00
 -2.8445932e-01
 -9.2327720e-01
 -5.0569314e-01
 -8.1582278e-01
  3.8832512e-01
  2.1363456e+00
 -2.6946952e+00
 -1.0592537e+00
 -8.4351897e-01
 -1.2892310e-01
 -2.3120034e+00
  9.1918659e-01
  2.7390888e-01
 -3.2099360e-01
  2.1015467e-01
 -3.7914622e-01
 -5.4104354e-02
  7.0918268e-01
  1.2490430e+00
 -1.7638053e+00
  7.6217395e-01
 -1.7945817e-01
  1.7069674e+00
 -1.4080375e+00
  9.6690291e-01
 -5.6141198e-01
  1.4575826e+00
 -1.6651405e-01
  1.6148844e-01
  1.6599806e-01
 -4.4988248e-01
 -7.9284596e-01
 -6.1834655e-03
 -1.6396406e+00
 -2.1877084e+00
  1.0366726e-01
  1.0469768e+00
  1.6682410e+00
 -1.9198434e-01
  1.7923988e+00
 -1.4321018e+00
  1.1101506e+00
 -6.3530397e-01
 -1.7017111e+00
  1.0937403e-02
 -1.9614666e+00
  1.2910492e+00
 -1.1145865e+00
 -3.9256477e-01
  1.0446734e+00
  8.8670295e-01
 -4.1092887e+00
 -2.8526709e+00
 -4.8916462e-01
  6.6084158e-01
 -7.9630286e-01
  8.6127603e-01
 -7.2824293e-01
 -1.4368120e-01
 -8.0399185e-01
 -2.4288671e+00
  2.1374223e-01
 -2.8275728e-01
 -6.5828806e-01
  1.1009316e+00
  9.0349662e-01
 -3.5091507e-01
  9.0342723e-02
  4.3353784e-01
 -2.8867579e-01
 -2.0959311e+00
  1.9868684e+00
 -8.2204896e-01
 -9.2225736e-01
  2.4363906e+00
  2.0291369e+00
 -1.6783097e-05
  1.4925256e+00
  1.9268506e+00
 -2.5097795e+00
 -3.4197167e-01
 -3.8973469e-01
 -1.8835301e+00
 -8.7560785e-01
  2.1984890e+00
  4.9552101e-01
  1.4664210e+00
  2.4659820e+00
 -5.9750021e-01
  7.8112721e-01
  2.9245796e+00
 -3.3802557e-01
  7.9002136e-01
 -1.0112033e+00
 -1.0982455e-01
  3.9093597e+00
 -5.9205931e-01
 -2.2898452e+00
 -8.1705749e-01
  2.0584655e+00
 -2.6851602e+00
  7.4990064e-02
 -8.2327151e-01
  1.2690823e+00
 -1.1540875e+00
  1.3110423e-01
 -9.6657246e-01
 -3.4468350e+00
 -3.8236213e-01
 -3.5422423e-01
  1.0736247e-02
 -2.7385612e+00
  1.0820786e+00
 -2.2074378e+00
  3.2544342e-01
  5.6666696e-01
 -1.3580993e+00
 -1.8544933e+00
  1.8811134e+00
  6.6580330e-03
  6.0606340e-04
  1.1781063e+00
 -1.1775502e+00
 -1.1856915e+00
 -1.9928811e+00
  1.0378186e+00
 -4.5693202e+00
 -1.3078305e+00
 -1.3518790e+00
 -4.3630224e-02
 -6.1443943e-01
 -1.1921375e+00
 -3.0411085e-01
  1.4548070e+00
  5.5163727e+00
  1.0990815e+00
 -1.8227919e+00
  2.0057988e+00
  5.8357220e+00
  1.0999149e+00
 -1.4346066e+00
 -8.0164701e-01
  1.8538045e+00
 -2.8115761e+00
 -1.2302194e+00
 -1.2884984e+00
 -1.5223644e+00
  3.0504117e+00
 -1.8154136e+00
 -3.4026822e-01
 -3.2287509e+00
  1.3222045e+00
  9.0091769e-04
 -2.1379246e-01
 -1.7990186e+00
  7.9108667e-01
 -5.8431077e-01
  2.3695795e-01
 -1.2193564e-01
 -3.5505810e+00
  2.0092790e+00
  2.2398937e+00
  6.6031493e-02
 -3.7716112e-01
 -1.5289410e-03
 -1.5701218e-02
  1.0607375e-01
 -8.2642458e-02
  2.4032738e+00
 -4.0410361e-01
 -1.6148201e+00
  3.0026570e-01
  3.6318305e-01
  8.9087032e-02
 -2.7158225e+00
 -1.4555652e+00
  1.6094722e+00
 -2.2332087e+00
  2.5075224e-01
  3.7654259e+00
  4.2676231e-01
  3.7618265e-01
  2.4024859e-01
 -5.1172030e-01
  2.6460097e+00
 -1.9489841e+00
  1.1026542e+00
  1.3765025e+00
  1.3934027e+00
  2.9662199e+00
 -1.4703734e+00
  1.2652144e+00
  1.6199833e+00
  2.5613179e+00
 -1.2153209e+00
  1.1580699e-01
  8.3059359e-01
  1.8401091e+00
 -7.3470807e-01
  4.6661100e-01
  2.6023647e-02
  3.6251321e-01
  2.5112081e+00
  5.3097427e-01
 -7.8173739e-01
 -1.0074406e-01
  4.6794820e-01
 -7.5575030e-01
  3.5587385e-01
  7.5641173e-01
 -2.1241357e+00
  3.1031795e+00
 -6.1291236e-01
  2.0830469e+00
 -1.6251378e+00
 -1.2807946e-01
 -7.6646566e-01
  1.2880127e+00
  1.1814161e-01
 -2.1496590e-03
  3.2763797e-04
 -1.8058112e+00
  3.8044974e-02
  5.6879050e-01
 -1.6252780e+00
  3.3874980e-01
  7.1197979e-02
 -2.5467188e+00
 -6.4389324e-01
 -1.7597495e-01
 -3.8608201e+00
 -3.0241764e-01
 -3.5743748e-03
  2.3666131e-01
  8.1309903e-01
  1.0193007e+00
 -1.3175437e+00
  9.8105258e-01
  3.4832678e+00
 -1.6192558e-01
 -2.9188150e-01
  9.2810735e-02
  2.8773878e+00
 -2.7163753e-01
  2.3441133e-01
 -2.2669041e+00
 -8.4397680e-01
  1.3682808e+00
 -1.9507536e+00
  5.5490508e+00
 -8.7809805e-03
  3.8653770e-01
  3.6356077e-03
  6.3667166e-01
 -8.9677572e-01
 -6.5367121e-01
 -3.2681479e+00
 -1.4569526e+00
 -7.2789639e-01
  4.1481468e-01
 -2.1119468e-01
  2.4700432e+00
 -1.4385513e+00
 -3.1995830e-01
 -1.1774800e+00
 -6.3256210e-01
  1.0020786e-02
  7.3851138e-01
 -4.3134980e+00
 -8.6898273e-01
 -4.4585797e-01
  9.5972300e-01
 -1.2932817e+00
 -5.2236742e-01
 -3.7424228e-01
  1.0851799e-01
 -2.5486290e+00
  2.2014844e+00
  5.1578575e-01
  6.0793754e-02
 -9.8971683e-01
  3.1561511e+00
 -9.8789921e-03
  7.3963195e-01
 -1.6336511e+00
  1.9981209e+00
  4.3178016e-01
  7.6452948e-02
  1.0430547e+00
  7.9584336e-03
  7.9584336e-03
  7.9584336e-03
  7.9584336e-03
  7.9584336e-03
  7.9584336e-03
  7.9584336e-03
  3.1577896e-02
  3.1577896e-02
  3.1577896e-02
  3.1577896e-02
  3.1577896e-02
  3.1577896e-02
  3.1577896e-02
  3.4842316e-02
  3.4842316e-02
  3.4842316e-02
  3.4842316e-02
  3.4842316e-02
  3.4842316e-02
  3.4842316e-02
  1.2782536e-02
  1.2782536e-02
  1.2782536e-02
  1.2782536e-02
  1.2782536e-02
  1.2782536e-02
  1.2782536e-02
  1.2144634e-02
  1.2144634e-02
  1.2144634e-02
  1.2144634e-02
  1.2144634e-02
  1.2144634e-02
  1.2144634e-02
  2.2385158e-02
  2.2385158e-02
  2.2385158e-02
  2.2385158e-02
  2.2385158e-02
  2.2385158e-02
  2.2385158e-02
